{"learner":{"attributes":{"scikit_learn":"{\"_estimator_type\": \"classifier\"}"},"feature_names":["default","housing","loan","pdays_contact","job_admin.","job_blue-collar","job_entrepreneur","job_housemaid","job_management","job_retired","job_self-employed","job_services","job_student","job_technician","job_unemployed","job_unknown","marital_divorced","marital_married","marital_single","contact_cellular","contact_telephone","contact_unknown","poutcome_failure","poutcome_other","poutcome_success","poutcome_unknown","education","age_cat","day_sin","day_cos","month_sin","month_cos","balance","campaign","previous","pdays_days"],"feature_types":["float","float","float","float","float","float","float","float","float","float","float","float","float","float","float","float","float","float","float","float","float","float","float","float","float","float","float","float","float","float","float","float","float","float","float","float"],"gradient_booster":{"model":{"gbtree_model_param":{"num_parallel_tree":"1","num_trees":"300"},"iteration_indptr":[0,1,2,3,4,5,6,7,8,9,10,11,12,13,14,15,16,17,18,19,20,21,22,23,24,25,26,27,28,29,30,31,32,33,34,35,36,37,38,39,40,41,42,43,44,45,46,47,48,49,50,51,52,53,54,55,56,57,58,59,60,61,62,63,64,65,66,67,68,69,70,71,72,73,74,75,76,77,78,79,80,81,82,83,84,85,86,87,88,89,90,91,92,93,94,95,96,97,98,99,100,101,102,103,104,105,106,107,108,109,110,111,112,113,114,115,116,117,118,119,120,121,122,123,124,125,126,127,128,129,130,131,132,133,134,135,136,137,138,139,140,141,142,143,144,145,146,147,148,149,150,151,152,153,154,155,156,157,158,159,160,161,162,163,164,165,166,167,168,169,170,171,172,173,174,175,176,177,178,179,180,181,182,183,184,185,186,187,188,189,190,191,192,193,194,195,196,197,198,199,200,201,202,203,204,205,206,207,208,209,210,211,212,213,214,215,216,217,218,219,220,221,222,223,224,225,226,227,228,229,230,231,232,233,234,235,236,237,238,239,240,241,242,243,244,245,246,247,248,249,250,251,252,253,254,255,256,257,258,259,260,261,262,263,264,265,266,267,268,269,270,271,272,273,274,275,276,277,278,279,280,281,282,283,284,285,286,287,288,289,290,291,292,293,294,295,296,297,298,299,300],"tree_info":[0,0,0,0,0,0,0,0,0,0,0,0,0,0,0,0,0,0,0,0,0,0,0,0,0,0,0,0,0,0,0,0,0,0,0,0,0,0,0,0,0,0,0,0,0,0,0,0,0,0,0,0,0,0,0,0,0,0,0,0,0,0,0,0,0,0,0,0,0,0,0,0,0,0,0,0,0,0,0,0,0,0,0,0,0,0,0,0,0,0,0,0,0,0,0,0,0,0,0,0,0,0,0,0,0,0,0,0,0,0,0,0,0,0,0,0,0,0,0,0,0,0,0,0,0,0,0,0,0,0,0,0,0,0,0,0,0,0,0,0,0,0,0,0,0,0,0,0,0,0,0,0,0,0,0,0,0,0,0,0,0,0,0,0,0,0,0,0,0,0,0,0,0,0,0,0,0,0,0,0,0,0,0,0,0,0,0,0,0,0,0,0,0,0,0,0,0,0,0,0,0,0,0,0,0,0,0,0,0,0,0,0,0,0,0,0,0,0,0,0,0,0,0,0,0,0,0,0,0,0,0,0,0,0,0,0,0,0,0,0,0,0,0,0,0,0,0,0,0,0,0,0,0,0,0,0,0,0,0,0,0,0,0,0,0,0,0,0,0,0,0,0,0,0,0,0,0,0,0,0,0,0,0,0,0,0,0,0,0,0,0,0,0,0,0,0,0,0,0,0],"trees":[{"base_weights":[-6.478391E-3,-1.9219878E-1,1.7343001E0,4.1777916E-2,-1.0155996E0,1.7574992E0,5.3395176E-1,1.3523968E0,-1.4403115E-2,-1.0593228E0,1.0344638E0,1.78444E0,8.1743294E-1,-2.5830981E-3,1.27046835E-2,4.9964115E-1,1.4724271E0,-6.330467E-2,1.6036751E0,-1.0847158E0,-5.218451E-1,-1.0990136E-3,1.4017178E0,1.7938364E-2,6.188614E-3,1.0935028E-2,-1.5952629E-3,9.09259E-2,9.402759E-1,1.5190347E0,2.5448E-3,1.5085694E0,-1.1181895E-1,1.6956257E0,2.328477E-3,-9.0699065E-1,-1.1906394E0,-7.3342824E-1,3.358332E-1,2.8571289E-3,1.6478464E-2,3.6753294E-1,-3.3262207E-3,2.8571289E-3,1.1761912E-2,1.5475416E-2,4.689231E-3,7.631811E-1,1.614318E0,-2.783457E-1,2.8005102E-1,6.5390444E-3,1.763979E-2,4.8427555E-1,-9.434532E-1,-1.3704134E0,-9.951464E-1,-8.7758595E-1,7.573905E-4,-6.0476544E-3,9.832427E-3,-1.5952629E-3,7.3095206E-3,2.1697907E-3,1.1579825E-2,1.7267017E-2,8.785902E-3,-2.1327916E-4,-4.433124E-3,3.5912546E-3,-4.3413723E-3,-6.0476544E-3,1.27046835E-2,-8.447871E-3,-1.3661555E-2,-1.4633166E-2,-1.1257637E-2,-1.0864762E-2,-5.2326936E-3,-1.3438507E-3,-1.1764248E-2],"categories":[],"categories_nodes":[],"categories_segments":[],"categories_sizes":[],"default_left":[0,0,0,0,0,0,0,0,0,0,0,0,0,0,0,0,0,0,0,0,0,0,0,0,0,0,0,0,0,0,0,0,0,0,0,0,0,0,0,0,0,0,0,0,0,0,0,0,0,0,0,0,0,0,0,0,0,0,0,0,0,0,0,0,0,0,0,0,0,0,0,0,0,0,0,0,0,0,0,0,0],"id":0,"left_children":[1,3,5,7,9,11,13,15,17,19,21,23,25,-1,-1,27,29,31,33,35,37,-1,39,-1,-1,-1,-1,41,43,45,-1,47,49,51,-1,53,55,57,59,-1,-1,61,-1,-1,-1,-1,-1,63,65,67,69,-1,-1,71,73,75,77,79,-1,-1,-1,-1,-1,-1,-1,-1,-1,-1,-1,-1,-1,-1,-1,-1,-1,-1,-1,-1,-1,-1,-1],"loss_changes":[5.39877E2,2.9074E2,3.5445251E0,8.660787E1,3.1027435E1,2.5299988E0,2.947425E0,4.212982E0,8.9404945E1,3.9030151E0,3.2973194E0,5.5752563E-1,1.8555741E0,0E0,0E0,1.2614495E0,1.9901199E0,8.378357E1,3.783226E0,4.788849E0,3.2767544E0,0E0,1.1044111E0,0E0,0E0,0E0,0E0,7.065256E-1,2.0318174E-1,4.754486E-1,0E0,1.3610611E0,6.954854E1,1.0470276E0,0E0,6.5755615E0,5.388733E0,1.665595E0,3.0245717E0,0E0,0E0,7.854693E-1,0E0,0E0,0E0,0E0,0E0,1.0391254E0,7.9091644E-1,3.168805E1,1.8113426E1,0E0,0E0,3.9715059E0,3.7619553E0,5.673065E-1,3.5555878E0,2.44388E0,0E0,0E0,0E0,0E0,0E0,0E0,0E0,0E0,0E0,0E0,0E0,0E0,0E0,0E0,0E0,0E0,0E0,0E0,0E0,0E0,0E0,0E0,0E0],"parents":[2147483647,0,0,1,1,2,2,3,3,4,4,5,5,6,6,7,7,8,8,9,9,10,10,11,11,12,12,15,15,16,16,17,17,18,18,19,19,20,20,22,22,27,27,28,28,29,29,31,31,32,32,33,33,35,35,36,36,37,37,38,38,41,41,47,47,48,48,49,49,50,50,53,53,54,54,55,55,56,56,57,57],"right_children":[2,4,6,8,10,12,14,16,18,20,22,24,26,-1,-1,28,30,32,34,36,38,-1,40,-1,-1,-1,-1,42,44,46,-1,48,50,52,-1,54,56,58,60,-1,-1,62,-1,-1,-1,-1,-1,64,66,68,70,-1,-1,72,74,76,78,80,-1,-1,-1,-1,-1,-1,-1,-1,-1,-1,-1,-1,-1,-1,-1,-1,-1,-1,-1,-1,-1,-1,-1],"split_conditions":[1E0,1E0,1E0,-8.660254E-1,6.123234E-17,1.5E0,1.3E2,-2.863395E-1,1E0,9.795299E-1,-7.587581E-1,4.75E2,1E0,-2.5830981E-3,1.27046835E-2,0E0,3.88E2,-8.660254E-1,1E0,5E-1,1E0,-1.0990136E-3,-1.5317287E-1,1.7938364E-2,6.188614E-3,1.0935028E-2,-1.5952629E-3,-3.1009692E-1,2.0129852E-1,1E0,2.5448E-3,-3.4135666E-1,4.732729E-1,-8.743466E-1,2.328477E-3,-7.907757E-1,-1.4754611E-1,9.6467644E-1,5E-1,2.8571289E-3,1.6478464E-2,-3.4323227E-1,-3.3262207E-3,2.8571289E-3,1.1761912E-2,1.5475416E-2,4.689231E-3,3.4730524E-1,8.2076347E-1,0E0,1E0,6.5390444E-3,1.763979E-2,0E0,1.5E0,1E0,1E0,-2.963426E-1,7.573905E-4,-6.0476544E-3,9.832427E-3,-1.5952629E-3,7.3095206E-3,2.1697907E-3,1.1579825E-2,1.7267017E-2,8.785902E-3,-2.1327916E-4,-4.433124E-3,3.5912546E-3,-4.3413723E-3,-6.0476544E-3,1.27046835E-2,-8.447871E-3,-1.3661555E-2,-1.4633166E-2,-1.1257637E-2,-1.0864762E-2,-5.2326936E-3,-1.3438507E-3,-1.1764248E-2],"split_indices":[24,21,7,31,31,33,35,32,30,29,29,35,13,0,0,33,35,30,23,30,13,0,32,0,0,0,0,32,28,10,0,32,32,29,0,28,32,32,33,0,0,32,0,0,0,0,0,29,29,33,2,0,0,33,33,5,13,32,0,0,0,0,0,0,0,0,0,0,0,0,0,0,0,0,0,0,0,0,0,0,0],"split_type":[0,0,0,0,0,0,0,0,0,0,0,0,0,0,0,0,0,0,0,0,0,0,0,0,0,0,0,0,0,0,0,0,0,0,0,0,0,0,0,0,0,0,0,0,0,0,0,0,0,0,0,0,0,0,0,0,0,0,0,0,0,0,0,0,0,0,0,0,0,0,0,0,0,0,0,0,0,0,0,0,0],"sum_hessian":[1.6678739E3,1.5078895E3,1.5998431E2,1.1749626E3,3.3292685E2,1.5649556E2,3.4887545E0,4.734738E1,1.1276154E3,3.2644775E2,6.4791155E0,1.5126244E2,5.233132E0,1.993574E0,1.4951805E0,6.4791155E0,4.0868267E1,1.0954689E3,3.214638E1,3.1074835E2,1.5699395E1,1.7443773E0,4.7347383E0,1.4951805E2,1.7443773E0,3.987148E0,1.2459837E0,3.987148E0,2.4919674E0,3.912389E1,1.7443773E0,3.1897184E1,1.0635718E3,2.990361E1,2.2427707E0,1.1961444E2,1.9113391E2,1.2709034E1,2.990361E0,1.2459837E0,3.4887545E0,2.4919674E0,1.4951805E0,1.2459837E0,1.2459837E0,3.7628708E1,1.4951805E0,4.983935E0,2.691325E1,7.4659344E2,3.1697827E2,2.4919674E0,2.7411642E1,2.7411642E0,1.16873276E2,9.643914E1,9.469476E1,1.0715461E1,1.993574E0,1.2459837E0,1.7443773E0,1.2459837E0,1.2459837E0,2.7411642E0,2.2427707E0,2.217851E1,4.7347383E0,2.923078E2,4.5428568E2,2.8582867E2,3.1149593E1,1.2459837E0,1.4951805E0,9.718674E1,1.9686544E1,6.628634E1,3.0152807E1,7.824778E1,1.6446985E1,3.4887545E0,7.226706E0],"tree_param":{"num_deleted":"0","num_feature":"36","num_nodes":"81","size_leaf_vector":"1"}},{"base_weights":[-1.7458296E-3,-1.8712796E-1,1.727565E0,5.472043E-2,-9.8638606E-1,1.7371621E0,2.7693547E-3,3.1575966E-1,-2.9958153E-1,-1.0342758E0,8.37337E-1,1.5774556E0,1.8828267E-2,-5.8411364E-3,8.16124E-1,1.1333197E0,-3.3939508E-1,-7.740026E-1,-1.2017026E0,1.8205878E-1,1.453446E-2,1.776846E0,7.7798617E-1,-1.8513921E-1,1.086176E0,1.2529887E0,1.9619884E-1,1.276722E0,3.584578E-1,-3.7183428E-1,1.3466438E0,-8.333494E-1,-2.4747692E-1,-5.256947E-1,-1.2334999E0,7.4155345E-3,-3.144373E-1,1.8383385E0,6.0611224E-1,8.985015E-1,-3.4058024E-3,-4.1521433E-1,4.821028E-1,1.3884628E0,7.099736E-2,1.3133243E0,2.047153E-1,-1.4531063E-1,9.2979026E-1,6.5985415E-4,1.4607766E0,7.240026E-3,-1.6661654E-3,-3.9787072E-1,1.2866467E0,1.5860316E0,6.561961E-4,-7.1957314E-1,-1.2469387E0,6.603755E-3,-4.774077E-1,3.4215188E-1,-8.9395213E-1,-1.0544631E0,-1.3386724E0,7.286988E-4,-6.046008E-3,1.2233647E0,1.9105848E-2,9.2946273E-1,-1.6647554E-3,1.1288645E0,-4.471399E-2,-4.895251E-3,7.153911E-3,1.3085182E-2,-1.7254024E-3,8.664223E-3,1.5061327E-2,-6.0717077E-3,9.143568E-3,1.0509806E-2,1.5398827E-2,-1.00115705E-2,7.171861E-3,1.3883648E-2,-2.9830679E-3,1.0621123E-2,-2.6960906E-3,1.6762117E-2,5.3021843E-3,1.992256E-3,-4.6169064E-3,2.7922797E-3,1.4432299E-2,2.8730782E-3,1.7912816E-2,-8.918506E-3,-3.5995378E-3,-1.3661646E-2,8.291273E-4,-9.507532E-3,-1.2864675E-3,8.7501705E-3,-3.2787928E-3,-4.449885E-3,-1.3430659E-2,-1.1207739E-2,-6.746357E-3,-1.0008357E-2,-1.3983254E-2,1.3368919E-2,2.7561332E-3,1.1680954E-2,2.771891E-3,1.324739E-2,-1.1875294E-3,-6.0393363E-3,7.2062113E-3],"categories":[],"categories_nodes":[],"categories_segments":[],"categories_sizes":[],"default_left":[0,0,0,0,0,0,0,0,0,0,0,0,0,0,0,0,0,0,0,0,0,0,0,0,0,0,0,0,0,0,0,0,0,0,0,0,0,0,0,0,0,0,0,0,0,0,0,0,0,0,0,0,0,0,0,0,0,0,0,0,0,0,0,0,0,0,0,0,0,0,0,0,0,0,0,0,0,0,0,0,0,0,0,0,0,0,0,0,0,0,0,0,0,0,0,0,0,0,0,0,0,0,0,0,0,0,0,0,0,0,0,0,0,0,0,0,0,0,0],"id":1,"left_children":[1,3,5,7,9,11,-1,13,15,17,19,21,-1,23,25,27,29,31,33,35,-1,37,39,41,43,45,47,49,51,53,55,57,59,61,63,-1,65,67,69,71,-1,73,75,77,79,81,83,85,87,-1,89,-1,-1,91,93,95,-1,97,99,-1,101,103,105,107,109,-1,-1,111,-1,113,-1,115,117,-1,-1,-1,-1,-1,-1,-1,-1,-1,-1,-1,-1,-1,-1,-1,-1,-1,-1,-1,-1,-1,-1,-1,-1,-1,-1,-1,-1,-1,-1,-1,-1,-1,-1,-1,-1,-1,-1,-1,-1,-1,-1,-1,-1,-1,-1],"loss_changes":[5.3268353E2,2.9014218E2,1.758667E0,1.06736534E2,3.1317902E1,7.435303E-1,0E0,1.0691718E2,2.8319149E1,1.389444E1,3.5603166E0,1.1738556E1,0E0,7.95841E1,7.015639E1,1.038868E0,2.6600098E1,4.042885E0,3.7626343E0,1.8260938E0,0E0,3.5725098E0,2.7607536E0,5.379413E1,1.7493248E1,9.364334E0,2.7354654E1,2.3491516E0,7.9118824E-1,2.076236E1,2.7246246E0,4.8335266E0,3.4875164E0,3.8091168E0,2.2649536E0,0E0,4.6441793E-1,3.8890076E-1,1.3390334E0,3.6819983E0,0E0,2.2205708E1,4.8903313E1,1.4051895E0,8.680726E0,6.930542E0,6.572677E0,1.8012835E1,5.7851944E0,0E0,1.0115204E0,0E0,0E0,1.7715637E1,7.776842E-1,1.5455284E0,0E0,5.7427483E0,4.0628204E0,0E0,1.9752858E0,1.7110739E0,1.0099492E0,1.1823349E0,1.0045013E0,0E0,0E0,6.2474155E-1,0E0,2.2005129E-1,0E0,3.4492702E0,2.2509966E0,0E0,0E0,0E0,0E0,0E0,0E0,0E0,0E0,0E0,0E0,0E0,0E0,0E0,0E0,0E0,0E0,0E0,0E0,0E0,0E0,0E0,0E0,0E0,0E0,0E0,0E0,0E0,0E0,0E0,0E0,0E0,0E0,0E0,0E0,0E0,0E0,0E0,0E0,0E0,0E0,0E0,0E0,0E0,0E0,0E0,0E0],"parents":[2147483647,0,0,1,1,2,2,3,3,4,4,5,5,7,7,8,8,9,9,10,10,11,11,13,13,14,14,15,15,16,16,17,17,18,18,19,19,21,21,22,22,23,23,24,24,25,25,26,26,27,27,28,28,29,29,30,30,31,31,32,32,33,33,34,34,36,36,37,37,38,38,39,39,41,41,42,42,43,43,44,44,45,45,46,46,47,47,48,48,50,50,53,53,54,54,55,55,57,57,58,58,60,60,61,61,62,62,63,63,64,64,67,67,69,69,71,71,72,72],"right_children":[2,4,6,8,10,12,-1,14,16,18,20,22,-1,24,26,28,30,32,34,36,-1,38,40,42,44,46,48,50,52,54,56,58,60,62,64,-1,66,68,70,72,-1,74,76,78,80,82,84,86,88,-1,90,-1,-1,92,94,96,-1,98,100,-1,102,104,106,108,110,-1,-1,112,-1,114,-1,116,118,-1,-1,-1,-1,-1,-1,-1,-1,-1,-1,-1,-1,-1,-1,-1,-1,-1,-1,-1,-1,-1,-1,-1,-1,-1,-1,-1,-1,-1,-1,-1,-1,-1,-1,-1,-1,-1,-1,-1,-1,-1,-1,-1,-1,-1,-1],"split_conditions":[1E0,1E0,1E0,1E0,-5E-1,1.76E2,2.7693547E-3,-2.4492937E-16,-8.660254E-1,1E0,1.1941232E-1,1E2,1.8828267E-2,2.2E1,5E-1,1E0,3.72E2,1.6148796E0,1E0,1E0,1.453446E-2,1E0,2.6689591E0,-1.8369701E-16,8.660254E-1,3.23E2,5.001563E-1,-3.4323227E-1,-1.4379494E-2,1E0,1E0,3.119725E-1,1.9055955E0,5E-1,5E-1,7.4155345E-3,5E-1,-8.660254E-1,1E0,1E0,-3.4058024E-3,4E0,-5E-1,-2.17568E-1,-2.4492937E-16,8.660254E-1,3.51E2,-5.712682E-1,9.377521E-1,6.5985415E-4,6.513725E-1,7.240026E-3,-1.6661654E-3,-5E-1,1E0,4.07E2,6.561961E-4,-1.356674E-1,1E0,6.603755E-3,-4.8530197E-1,5E-1,-2.4492937E-16,1E0,-7.907757E-1,7.286988E-4,-6.046008E-3,1E0,1.9105848E-2,-2.0129852E-1,-1.6647554E-3,8.660254E-1,1E0,-4.895251E-3,7.153911E-3,1.3085182E-2,-1.7254024E-3,8.664223E-3,1.5061327E-2,-6.0717077E-3,9.143568E-3,1.0509806E-2,1.5398827E-2,-1.00115705E-2,7.171861E-3,1.3883648E-2,-2.9830679E-3,1.0621123E-2,-2.6960906E-3,1.6762117E-2,5.3021843E-3,1.992256E-3,-4.6169064E-3,2.7922797E-3,1.4432299E-2,2.8730782E-3,1.7912816E-2,-8.918506E-3,-3.5995378E-3,-1.3661646E-2,8.291273E-4,-9.507532E-3,-1.2864675E-3,8.7501705E-3,-3.2787928E-3,-4.449885E-3,-1.3430659E-2,-1.1207739E-2,-6.746357E-3,-1.0008357E-2,-1.3983254E-2,1.3368919E-2,2.7561332E-3,1.1680954E-2,2.771891E-3,1.324739E-2,-1.1875294E-3,-6.0393363E-3,7.2062113E-3],"split_indices":[24,21,21,1,31,35,0,30,31,17,32,35,0,35,31,4,35,32,27,18,0,33,32,31,31,35,32,32,32,30,4,32,32,30,30,0,31,31,18,4,0,27,30,32,28,30,35,28,28,0,28,0,0,30,27,35,0,32,10,0,28,33,28,8,28,0,0,13,0,28,0,31,1,0,0,0,0,0,0,0,0,0,0,0,0,0,0,0,0,0,0,0,0,0,0,0,0,0,0,0,0,0,0,0,0,0,0,0,0,0,0,0,0,0,0,0,0,0,0],"split_type":[0,0,0,0,0,0,0,0,0,0,0,0,0,0,0,0,0,0,0,0,0,0,0,0,0,0,0,0,0,0,0,0,0,0,0,0,0,0,0,0,0,0,0,0,0,0,0,0,0,0,0,0,0,0,0,0,0,0,0,0,0,0,0,0,0,0,0,0,0,0,0,0,0,0,0,0,0,0,0,0,0,0,0,0,0,0,0,0,0,0,0,0,0,0,0,0,0,0,0,0,0,0,0,0,0,0,0,0,0,0,0,0,0,0,0,0,0,0,0],"sum_hessian":[1.6595986E3,1.4997205E3,1.5987825E2,1.1520514E3,3.4766898E2,1.5863124E2,1.2470028E0,6.633923E2,4.8865912E2,3.3919485E2,8.474147E0,8.1311104E1,7.732014E1,4.044361E2,2.589562E2,1.246796E1,4.7619116E2,1.3498186E2,2.0421298E2,4.734329E0,3.7398171E0,6.4101456E1,1.7209654E1,3.4811038E2,5.6325706E1,1.5130766E2,1.07648544E2,9.974349E0,2.4936109E0,4.6796698E2,8.224169E0,1.20784966E2,1.4196891E1,9.961664E0,1.9425133E2,1.9938797E0,2.7404497E0,6.0360775E1,3.7406793E0,1.5713416E1,1.496239E0,2.5913458E2,8.89758E1,4.3118683E1,1.3207022E1,1.4283371E2,8.473954E0,7.40008E1,3.364774E1,1.4954677E0,8.478882E0,1.2467763E0,1.2468346E0,4.614823E2,6.4846997E0,6.7286706E0,1.495498E0,9.6874985E1,2.3909977E1,2.490683E0,1.1706208E1,2.9888766E0,6.9727874E0,7.5963554E1,1.18287766E2,1.4944884E0,1.2459613E0,8.230928E0,5.2129845E1,2.4938705E0,1.2468088E0,1.2470822E1,3.2425935E0,2.4368504E2,1.5449545E1,3.8886726E1,5.0089073E1,9.469704E0,3.3648983E1,7.4756813E0,5.7313404E0,6.8802536E1,7.403117E1,2.2428393E0,6.231115E0,5.980103E0,6.80207E1,3.0407534E1,3.240207E0,6.2342763E0,2.244605E0,4.4357155E1,4.1712512E2,1.2467388E0,5.237961E0,1.2457786E0,5.482892E0,6.449726E1,3.237773E1,2.1917671E1,1.9923046E0,4.23385E0,7.4723577E0,1.4944384E0,1.4944382E0,4.48255E0,2.4902375E0,6.301208E1,1.2951476E1,2.0419918E1,9.786785E1,6.983777E0,1.2471514E0,1.2468921E0,1.2469785E0,1.0725167E1,1.7456551E0,1.9954422E0,1.2471514E0],"tree_param":{"num_deleted":"0","num_feature":"36","num_nodes":"119","size_leaf_vector":"1"}},{"base_weights":[-2.5348485E-2,-2.0409633E-1,1.6805888E0,3.851529E-2,-1.0121865E0,1.6994269E0,3.545463E-1,-4.9254145E-2,1.1176997E0,-1.0560427E0,5.92533E-1,1.7091868E0,2.682248E-3,7.2097024E-3,-1.6963793E-3,1.3163923E0,-1.1201919E-1,1.2866833E0,7.5549E-1,-4.921998E-1,-1.112891E0,-5.0917715E-1,1.4108156E0,1.7189939E0,2.7537814E-3,3.6835074E-1,1.4004757E0,-1.5675065E-1,1.537035E0,1.3323299E0,3.2849568E-1,9.2719394E-1,1.3828638E-2,-1.9357186E-2,-9.7099644E-1,-1.2576305E0,-9.6911097E-1,-9.223432E-3,7.3926797E-4,2.7814617E-3,1.6499441E-2,1.7423395E-2,1.0515063E0,-8.236545E-4,7.335246E-3,1.4232706E0,4.5682597E-3,-3.3778816E-1,1.8861161E-1,1.5867617E0,2.7323584E-3,1.4802911E0,1.0276837E0,-1.6078029E-3,6.0911314E-3,9.919178E-1,-1.6110557E-3,-2.7906775E-1,7.230316E-3,5.431584E-1,-1.9578652E-1,-2.9077286E-1,-1.3839726E0,-1.3011438E0,-7.363924E-1,-1.2996213E0,-8.823438E-1,-1.6627838E-3,1.3111445E0,1.6027885E-2,1.1016546E-2,-5.538929E-3,-3.3647014E-4,-1.8491739E-3,4.0239044E-3,5.260434E-3,1.6641987E-2,1.5118476E-2,4.6168366E-3,-5.841613E-4,1.1900548E-2,1.2968402E-2,5.914916E-3,7.790927E-4,-6.021543E-3,1.2745152E-2,-2.482287E-3,-7.876259E-3,7.0309226E-4,-9.895332E-3,1.9746386E-3,-4.600477E-3,-1.5238428E-2,-7.5342017E-3,-1.33218905E-2,-1.0008678E-2,8.790556E-3,-1.3950561E-2,-5.6073796E-3,-9.670255E-3,-6.0343477E-3,1.4763761E-2,4.5568827E-3],"categories":[],"categories_nodes":[],"categories_segments":[],"categories_sizes":[],"default_left":[0,0,0,0,0,0,0,0,0,0,0,0,0,0,0,0,0,0,0,0,0,0,0,0,0,0,0,0,0,0,0,0,0,0,0,0,0,0,0,0,0,0,0,0,0,0,0,0,0,0,0,0,0,0,0,0,0,0,0,0,0,0,0,0,0,0,0,0,0,0,0,0,0,0,0,0,0,0,0,0,0,0,0,0,0,0,0,0,0,0,0,0,0,0,0,0,0,0,0,0,0,0,0],"id":2,"left_children":[1,3,5,7,9,11,13,15,17,19,21,23,-1,-1,-1,25,27,29,31,33,35,37,39,41,-1,43,45,47,49,51,53,55,57,59,61,63,65,-1,-1,-1,-1,-1,67,-1,-1,69,-1,71,73,75,-1,77,79,-1,-1,81,-1,83,-1,85,87,89,91,93,95,97,99,-1,101,-1,-1,-1,-1,-1,-1,-1,-1,-1,-1,-1,-1,-1,-1,-1,-1,-1,-1,-1,-1,-1,-1,-1,-1,-1,-1,-1,-1,-1,-1,-1,-1,-1,-1],"loss_changes":[5.1199753E2,2.9797537E2,3.3754578E0,1.1085236E2,2.5323608E1,1.7311401E0,7.934542E-1,9.295276E1,4.415497E0,1.0413269E1,9.712167E0,1.7132568E0,0E0,0E0,0E0,3.2828293E0,7.666602E1,2.1252823E0,3.861517E0,7.4777784E0,5.22937E0,1.2695616E0,1.1634159E0,5.716858E-1,0E0,9.22712E-1,2.8367615E-1,6.3188286E1,1.2917862E0,9.8521423E-1,6.460067E-1,1.8988819E0,1.6006851E0,1.8610109E0,4.2137175E0,2.4677887E0,3.4358826E0,0E0,0E0,0E0,0E0,0E0,2.6636848E0,0E0,0E0,6.5444183E-1,0E0,4.3541428E1,2.7852268E1,1.2771683E0,0E0,4.3209076E-1,3.8520107E0,0E0,0E0,2.0952969E0,0E0,6.7982733E-1,0E0,2.9129653E0,2.2907367E0,2.745108E0,5.859318E-1,1.3447113E0,6.836539E0,1.4116974E0,2.479416E0,0E0,2.4432755E-1,0E0,0E0,0E0,0E0,0E0,0E0,0E0,0E0,0E0,0E0,0E0,0E0,0E0,0E0,0E0,0E0,0E0,0E0,0E0,0E0,0E0,0E0,0E0,0E0,0E0,0E0,0E0,0E0,0E0,0E0,0E0,0E0,0E0,0E0],"parents":[2147483647,0,0,1,1,2,2,3,3,4,4,5,5,6,6,7,7,8,8,9,9,10,10,11,11,15,15,16,16,17,17,18,18,19,19,20,20,21,21,22,22,23,23,25,25,26,26,27,27,28,28,29,29,30,30,31,31,32,32,33,33,34,34,35,35,36,36,42,42,45,45,47,47,48,48,49,49,51,51,52,52,55,55,57,57,59,59,60,60,61,61,62,62,63,63,64,64,65,65,66,66,68,68],"right_children":[2,4,6,8,10,12,14,16,18,20,22,24,-1,-1,-1,26,28,30,32,34,36,38,40,42,-1,44,46,48,50,52,54,56,58,60,62,64,66,-1,-1,-1,-1,-1,68,-1,-1,70,-1,72,74,76,-1,78,80,-1,-1,82,-1,84,-1,86,88,90,92,94,96,98,100,-1,102,-1,-1,-1,-1,-1,-1,-1,-1,-1,-1,-1,-1,-1,-1,-1,-1,-1,-1,-1,-1,-1,-1,-1,-1,-1,-1,-1,-1,-1,-1,-1,-1,-1,-1],"split_conditions":[1E0,1E0,1E0,4E0,-5E-1,1.3E1,3E0,-8.660254E-1,5.28964E-1,1E0,1.1941232E-1,1E0,2.682248E-3,7.2097024E-3,-1.6963793E-3,-3.2510158E-1,1E0,2E0,6.513725E-1,-2.4492937E-16,-1.15661144E-1,-4.4039416E-1,-7.587581E-1,1.5E0,2.7537814E-3,0E0,1E0,1E0,1E0,9.377931E-1,-5E-1,2E0,2.3995E0,5E-1,5E-1,9.189578E-1,1E0,-9.223432E-3,7.3926797E-4,2.7814617E-3,1.6499441E-2,1.7423395E-2,-8.4864426E-1,-8.236545E-4,7.335246E-3,1E0,4.5682597E-3,1.1941232E-1,-1.8818381E-1,-8.743466E-1,2.7323584E-3,9.9871653E-1,1.0840888E0,-1.6078029E-3,6.0911314E-3,-2.4492937E-16,-1.6110557E-3,3.2822758E-1,7.230316E-3,-7.247928E-1,-1.7005314E-1,6.513725E-1,-4.0262583E-1,-8.4864426E-1,1E0,9.189578E-1,1.3654267E0,-1.6627838E-3,7.247928E-1,1.6027885E-2,1.1016546E-2,-5.538929E-3,-3.3647014E-4,-1.8491739E-3,4.0239044E-3,5.260434E-3,1.6641987E-2,1.5118476E-2,4.6168366E-3,-5.841613E-4,1.1900548E-2,1.2968402E-2,5.914916E-3,7.790927E-4,-6.021543E-3,1.2745152E-2,-2.482287E-3,-7.876259E-3,7.0309226E-4,-9.895332E-3,1.9746386E-3,-4.600477E-3,-1.5238428E-2,-7.5342017E-3,-1.33218905E-2,-1.0008678E-2,8.790556E-3,-1.3950561E-2,-5.6073796E-3,-9.670255E-3,-6.0343477E-3,1.4763761E-2,4.5568827E-3],"split_indices":[24,21,7,27,31,34,27,31,29,27,32,21,0,0,0,32,30,33,28,28,32,29,29,33,0,33,7,18,11,32,30,33,32,30,30,29,26,0,0,0,0,0,28,0,0,18,0,32,32,29,0,28,32,0,0,30,0,32,0,28,32,28,32,28,18,29,32,0,28,0,0,0,0,0,0,0,0,0,0,0,0,0,0,0,0,0,0,0,0,0,0,0,0,0,0,0,0,0,0,0,0,0,0],"split_type":[0,0,0,0,0,0,0,0,0,0,0,0,0,0,0,0,0,0,0,0,0,0,0,0,0,0,0,0,0,0,0,0,0,0,0,0,0,0,0,0,0,0,0,0,0,0,0,0,0,0,0,0,0,0,0,0,0,0,0,0,0,0,0,0,0,0,0,0,0,0,0,0,0,0,0,0,0,0,0,0,0,0,0,0,0,0,0,0,0,0,0,0,0,0,0,0,0,0,0,0,0,0,0],"sum_hessian":[1.6769265E3,1.5186799E3,1.5824667E2,1.1687426E3,3.4993735E2,1.5575244E2,2.494234E0,1.0817212E3,8.7021385E1,3.4096097E2,8.976382E0,1.545046E2,1.247856E0,1.2470716E0,1.2471626E0,4.6653675E1,1.0350675E3,5.7597713E1,2.942367E1,3.211274E1,3.0884824E2,3.986642E0,4.989741E0,1.5325742E2,1.2471695E0,4.239055E0,4.241462E1,1.0086133E3,2.6454216E1,5.4605904E1,2.9918118E0,2.3689169E1,5.7344995E0,1.6680298E1,1.5432444E1,1.5005003E2,1.587982E2,1.9928205E0,1.9938214E0,1.246877E0,3.7428637E0,1.4652245E2,6.734969E0,2.2439306E0,1.9951248E0,4.0917942E1,1.4966784E0,6.61749E2,3.4686423E2,2.5206852E1,1.247364E0,3.415727E1,2.0448631E1,1.2461361E0,1.7456758E0,2.2442991E1,1.2461782E0,4.487638E0,1.2468613E0,3.486274E0,1.3194023E1,6.47364E0,8.958804E0,1.3710791E2,1.2942121E1,3.011331E1,1.2868489E2,1.2467753E0,5.4881935E0,2.3703634E1,1.7214308E1,3.8638528E2,2.7536374E2,1.26307014E2,2.2055724E2,2.2452319E0,2.2961618E1,3.2661194E1,1.4960752E0,2.7427306E0,1.77059E1,1.1469997E1,1.0972994E1,2.492521E0,1.995117E0,1.494581E0,1.9916931E0,3.4843464E0,9.709677E0,2.24042E0,4.2332196E0,1.7418648E0,7.216939E0,8.709911E0,1.28398E2,1.1448287E1,1.4938338E0,2.5882275E1,4.2310357E0,9.6821144E1,3.1863749E1,3.9914153E0,1.4967785E0],"tree_param":{"num_deleted":"0","num_feature":"36","num_nodes":"103","size_leaf_vector":"1"}},{"base_weights":[8.112523E-3,-1.7428674E-1,1.7157274E0,7.189436E-2,-9.9432385E-1,1.7252961E0,2.7383E-3,3.360695E-1,-2.862989E-1,-1.0064871E0,7.4031693E-3,1.7502778E0,9.303179E-1,-2.931447E-1,5.001803E-1,-1.8063491E-2,-4.713779E-1,-8.2633674E-1,-1.1250826E0,1.7628621E-2,8.926612E-1,2.1862832E-3,1.2210209E0,-4.3096724E-1,6.1319256E-1,8.240764E-1,2.5834903E-1,-5.949183E-2,1.2909425E0,-6.015235E-1,-1.1614169E-1,-8.9169276E-1,-1.6789432E-1,-5.923177E-1,-1.1556315E0,1.3294389E-2,5.465354E-4,1.4847588E-2,2.6763412E-3,-5.216591E-1,8.724136E-1,-5.9270253E-3,7.9261845E-1,5.761977E-1,9.5961463E-1,1.4036088E-1,1.2346421E0,6.737944E-2,-1.0997168E0,2.5825894E-3,1.6343605E-2,-6.2738585E-1,1.0099375E-2,-3.8427424E-1,1.0891588E-1,-1.0506158E0,-7.3484117E-1,2.23645E-1,-7.2715324E-1,-9.090661E-1,-5.8032908E-2,-6.831906E-1,-1.1748972E0,-1.1707961E-3,-7.0888046E-3,3.1965561E-3,1.1271879E-2,1.1298904E-2,3.321496E-3,8.088941E-3,4.6548859E-4,8.807542E-3,1.4739869E-2,9.314448E-3,1.7410929E-4,1.6309468E-2,7.317374E-3,4.3994968E-4,1.40485475E-2,-1.1889914E-2,-4.1142176E-3,-4.8726583E-3,-7.8059905E-3,6.6879606E-3,-5.0743073E-3,2.6046145E-3,-5.3124744E-3,-1.1049158E-2,-1.1753923E-3,-5.0537647E-3,-1.0751506E-2,-2.6578605E-3,1.17078405E-2,-1.0553021E-2,2.8836026E-3,-1.1142943E-2,-9.295965E-4,6.6961283E-3,-7.6884194E-3,-1.1680256E-2,-7.370724E-4,-1.0057395E-2,-1.236367E-2],"categories":[],"categories_nodes":[],"categories_segments":[],"categories_sizes":[],"default_left":[0,0,0,0,0,0,0,0,0,0,0,0,0,0,0,0,0,0,0,0,0,0,0,0,0,0,0,0,0,0,0,0,0,0,0,0,0,0,0,0,0,0,0,0,0,0,0,0,0,0,0,0,0,0,0,0,0,0,0,0,0,0,0,0,0,0,0,0,0,0,0,0,0,0,0,0,0,0,0,0,0,0,0,0,0,0,0,0,0,0,0,0,0,0,0,0,0,0,0,0,0,0,0],"id":3,"left_children":[1,3,5,7,9,11,-1,13,15,17,-1,19,21,23,25,27,29,31,33,-1,35,-1,37,39,41,43,45,47,49,51,53,55,57,59,61,-1,-1,-1,-1,63,65,-1,67,69,71,73,75,77,79,-1,-1,81,-1,83,85,87,89,91,93,95,97,99,101,-1,-1,-1,-1,-1,-1,-1,-1,-1,-1,-1,-1,-1,-1,-1,-1,-1,-1,-1,-1,-1,-1,-1,-1,-1,-1,-1,-1,-1,-1,-1,-1,-1,-1,-1,-1,-1,-1,-1,-1],"loss_changes":[5.1829156E2,3.0359045E2,1.7432251E0,1.09603874E2,8.070831E0,1.5361938E0,0E0,6.897072E1,2.4404976E1,6.4458313E0,0E0,8.1451416E-2,1.1790586E0,1.7565714E1,4.1222748E1,1.1021325E1,1.3381332E1,5.909729E0,2.6585388E0,0E0,1.480567E0,0E0,7.9552937E-1,1.4735855E1,4.514763E0,7.0290833E0,3.488224E1,2.6017893E1,1.7892303E0,9.497971E0,4.824276E0,2.4152374E0,3.2164946E0,2.179576E0,9.5596313E-1,0E0,0E0,0E0,0E0,8.520126E0,7.9922724E-1,0E0,2.2184772E0,1.0103018E1,4.558975E0,2.65018E1,5.3207817E0,5.4476156E0,8.274822E-1,0E0,0E0,4.126953E0,0E0,5.0582895E0,4.3939366E0,2.970108E0,4.7415237E0,4.468401E0,2.2965324E0,1.2720108E0,3.6066034E0,2.8570342E0,6.7245483E-1,0E0,0E0,0E0,0E0,0E0,0E0,0E0,0E0,0E0,0E0,0E0,0E0,0E0,0E0,0E0,0E0,0E0,0E0,0E0,0E0,0E0,0E0,0E0,0E0,0E0,0E0,0E0,0E0,0E0,0E0,0E0,0E0,0E0,0E0,0E0,0E0,0E0,0E0,0E0,0E0],"parents":[2147483647,0,0,1,1,2,2,3,3,4,4,5,5,7,7,8,8,9,9,11,11,12,12,13,13,14,14,15,15,16,16,17,17,18,18,20,20,22,22,23,23,24,24,25,25,26,26,27,27,28,28,29,29,30,30,31,31,32,32,33,33,34,34,39,39,40,40,42,42,43,43,44,44,45,45,46,46,47,47,48,48,51,51,53,53,54,54,55,55,56,56,57,57,58,58,59,59,60,60,61,61,62,62],"right_children":[2,4,6,8,10,12,-1,14,16,18,-1,20,22,24,26,28,30,32,34,-1,36,-1,38,40,42,44,46,48,50,52,54,56,58,60,62,-1,-1,-1,-1,64,66,-1,68,70,72,74,76,78,80,-1,-1,82,-1,84,86,88,90,92,94,96,98,100,102,-1,-1,-1,-1,-1,-1,-1,-1,-1,-1,-1,-1,-1,-1,-1,-1,-1,-1,-1,-1,-1,-1,-1,-1,-1,-1,-1,-1,-1,-1,-1,-1,-1,-1,-1,-1,-1,-1,-1,-1],"split_conditions":[1E0,1E0,1E0,1E0,1E0,1.5E0,2.7383E-3,-2.863395E-1,1E0,1E0,7.4031693E-3,1E0,1.03E2,1E0,0E0,3.7E2,5.301657E-1,1.6148796E0,-8.4864426E-1,1.7628621E-2,1E0,2.1862832E-3,1E0,4E0,1E0,-2.9936314E-1,4E0,3.25E2,-1.9193497E-1,3.77E2,-2.0129852E-1,-1.7005314E-1,2.8840263E0,2.675836E-1,1E0,1.3294389E-2,5.465354E-4,1.4847588E-2,2.6763412E-3,0E0,3.9435586E-1,-5.9270253E-3,-3.4260705E-1,-6.513725E-1,1E0,1E0,2.9936314E-1,4E0,1E0,2.5825894E-3,1.6343605E-2,2E0,1.0099375E-2,-8.9780456E-1,2.43E2,1E0,3.2822758E-1,2.2269459E0,1E0,2E0,1.4842138E0,1E0,1E0,-1.1707961E-3,-7.0888046E-3,3.1965561E-3,1.1271879E-2,1.1298904E-2,3.321496E-3,8.088941E-3,4.6548859E-4,8.807542E-3,1.4739869E-2,9.314448E-3,1.7410929E-4,1.6309468E-2,7.317374E-3,4.3994968E-4,1.40485475E-2,-1.1889914E-2,-4.1142176E-3,-4.8726583E-3,-7.8059905E-3,6.6879606E-3,-5.0743073E-3,2.6046145E-3,-5.3124744E-3,-1.1049158E-2,-1.1753923E-3,-5.0537647E-3,-1.0751506E-2,-2.6578605E-3,1.17078405E-2,-1.0553021E-2,2.8836026E-3,-1.1142943E-2,-9.295965E-4,6.6961283E-3,-7.6884194E-3,-1.1680256E-2,-7.370724E-4,-1.0057395E-2,-1.236367E-2],"split_indices":[24,21,21,1,3,33,0,32,17,17,0,7,35,3,33,35,32,32,28,0,17,0,1,27,19,28,27,35,32,35,28,32,32,32,27,0,0,0,0,33,28,0,32,28,4,27,28,27,11,0,0,27,0,28,35,0,32,32,8,27,32,5,1,0,0,0,0,0,0,0,0,0,0,0,0,0,0,0,0,0,0,0,0,0,0,0,0,0,0,0,0,0,0,0,0,0,0,0,0,0,0,0,0],"split_type":[0,0,0,0,0,0,0,0,0,0,0,0,0,0,0,0,0,0,0,0,0,0,0,0,0,0,0,0,0,0,0,0,0,0,0,0,0,0,0,0,0,0,0,0,0,0,0,0,0,0,0,0,0,0,0,0,0,0,0,0,0,0,0,0,0,0,0,0,0,0,0,0,0,0,0,0,0,0,0,0,0,0,0,0,0,0,0,0,0,0,0,0,0,0,0,0,0,0,0,0,0,0,0],"sum_hessian":[1.6620697E3,1.5024799E3,1.5958978E2,1.1562712E3,3.462087E2,1.5834245E2,1.2473303E0,6.6550726E2,4.9076395E2,3.4421484E2,1.9938519E0,1.523532E2,5.989252E0,1.375072E2,5.2800006E2,2.00817E2,2.8994696E2,1.398087E2,2.0440614E2,1.4910968E2,3.2435184E0,2.2450538E0,3.7441983E0,1.1981237E2,1.7694822E1,2.2467479E2,3.0332526E2,1.9558165E2,5.235353E0,2.1169594E2,7.825101E1,1.2686229E2,1.2946405E1,1.2190809E1,1.9221535E2,1.7466956E0,1.4968227E0,2.4962907E0,1.2479075E0,1.1257868E2,7.2336884E0,1.9934962E0,1.5701325E1,8.127902E1,1.4339577E2,2.716404E2,3.1684845E1,1.7515416E2,2.042749E1,1.7437601E0,3.491593E0,2.0895312E2,2.7428153E0,3.538547E1,4.2865532E1,6.0184658E1,6.6677635E1,7.968048E0,4.978357E0,7.2130938E0,4.977715E0,8.959854E0,1.832555E2,3.6129444E1,7.644924E1,2.9935498E0,4.240138E0,8.22391E0,7.4774146E0,5.610331E1,2.517571E1,1.2668544E2,1.6710331E1,3.5654785E1,2.3598561E2,1.6466036E1,1.5218809E1,1.7315952E2,1.9946327E0,1.7438236E1,2.9892545E0,1.11323425E2,9.762971E1,3.2411366E0,3.2144333E1,3.513999E1,7.725541E0,5.6700813E1,3.4838455E0,4.130885E1,2.5368784E1,5.727672E0,2.240376E0,3.7329316E0,1.245425E0,5.4717274E0,1.7413665E0,2.4883654E0,2.4893496E0,4.4798107E0,4.4800434E0,5.3471092E1,1.297844E2],"tree_param":{"num_deleted":"0","num_feature":"36","num_nodes":"103","size_leaf_vector":"1"}},{"base_weights":[3.9121555E-3,-1.7579518E-1,1.6357077E0,6.326261E-2,-9.651783E-1,1.6575036E0,4.1750988E-1,3.1602427E-1,-2.8047493E-1,-1.0097882E0,1.3640374E-2,1.6848483E0,8.678588E-1,1.0506149E-2,-6.128008E-3,2.1038068E-2,7.768288E-1,-3.1824362E-1,1.5641903E0,-8.09209E-1,-1.1431296E0,1.1229948E0,1.7197846E-2,-8.9339283E-4,1.2946022E0,-1.4880486E-1,1.101086E0,1.1492002E0,2.1687E-1,1.3543295E0,-3.620807E-1,1.7204842E-2,2.6095875E-3,-8.354288E-1,2.9403312E-2,-9.467454E-1,-1.25447735E-2,1.294625E0,-1.962019E-3,1.5491609E-2,2.661325E-3,-3.639005E-1,4.6363902E-1,1.3929937E0,6.398715E-2,1.2119157E0,1.3844718E-1,1.5572252E0,1.1279364E-1,1.4517554E-2,2.6508975E-3,-5.058232E-1,-3.0934358E-2,-1.0268203E0,-7.628717E-1,-3.070242E-3,2.4594085E-3,-1.0267918E0,-4.5498502E-1,1.4491763E-2,4.9195224E-3,1.3318503E-3,-5.145404E-3,1.2591155E-2,-1.434562E-3,1.4436717E-2,-1.7215867E-3,9.976615E-3,-5.305192E-3,9.68493E-3,1.4197782E-2,4.2089676E-3,-1.0524969E-2,2.7794365E-3,1.7684221E-2,2.2452583E-3,-8.479801E-3,-5.2195177E-3,1.4142165E-2,-8.5441367E-4,1.3499839E-2,-3.358302E-3,-1.0934374E-2,-9.093306E-3,-6.3754516E-3,-8.552328E-3,-1.2253396E-2,6.613794E-5,-6.480315E-3],"categories":[],"categories_nodes":[],"categories_segments":[],"categories_sizes":[],"default_left":[0,0,0,0,0,0,0,0,0,0,0,0,0,0,0,0,0,0,0,0,0,0,0,0,0,0,0,0,0,0,0,0,0,0,0,0,0,0,0,0,0,0,0,0,0,0,0,0,0,0,0,0,0,0,0,0,0,0,0,0,0,0,0,0,0,0,0,0,0,0,0,0,0,0,0,0,0,0,0,0,0,0,0,0,0,0,0,0,0],"id":4,"left_children":[1,3,5,7,9,11,13,15,17,19,-1,21,23,-1,-1,25,27,29,31,33,35,37,-1,-1,39,41,43,45,47,49,51,-1,-1,53,55,57,-1,59,-1,-1,-1,61,63,65,67,69,71,73,75,-1,-1,77,79,81,83,-1,-1,85,87,-1,-1,-1,-1,-1,-1,-1,-1,-1,-1,-1,-1,-1,-1,-1,-1,-1,-1,-1,-1,-1,-1,-1,-1,-1,-1,-1,-1,-1,-1],"loss_changes":[4.8894788E2,2.8349655E2,3.6997986E0,1.003338E2,3.766034E1,2.0393372E0,3.412254E0,9.042517E1,3.459719E1,8.25415E0,0E0,1.1244507E0,3.175117E0,0E0,0E0,7.476647E1,5.389293E1,3.571716E1,1.5856571E0,3.1132889E0,3.267334E0,2.9698296E0,0E0,0E0,9.608679E-1,4.6579594E1,1.6677246E1,9.703217E0,1.4463406E1,9.397011E-1,2.230708E1,0E0,0E0,1.1087036E0,4.5613205E-1,2.59507E0,0E0,6.2011147E-1,0E0,0E0,0E0,1.9634556E1,4.4616066E1,3.6727295E0,7.863259E0,6.037216E0,3.8830247E0,1.5302944E0,1.0759663E1,0E0,0E0,1.0863014E1,1.088005E1,1.2237816E0,1.3050461E0,0E0,0E0,1.2038574E0,1.1347277E0,0E0,0E0,0E0,0E0,0E0,0E0,0E0,0E0,0E0,0E0,0E0,0E0,0E0,0E0,0E0,0E0,0E0,0E0,0E0,0E0,0E0,0E0,0E0,0E0,0E0,0E0,0E0,0E0,0E0,0E0],"parents":[2147483647,0,0,1,1,2,2,3,3,4,4,5,5,6,6,7,7,8,8,9,9,11,11,12,12,15,15,16,16,17,17,18,18,19,19,20,20,21,21,24,24,25,25,26,26,27,27,28,28,29,29,30,30,33,33,34,34,35,35,37,37,41,41,42,42,43,43,44,44,45,45,46,46,47,47,48,48,51,51,52,52,53,53,54,54,57,57,58,58],"right_children":[2,4,6,8,10,12,14,16,18,20,-1,22,24,-1,-1,26,28,30,32,34,36,38,-1,-1,40,42,44,46,48,50,52,-1,-1,54,56,58,-1,60,-1,-1,-1,62,64,66,68,70,72,74,76,-1,-1,78,80,82,84,-1,-1,86,88,-1,-1,-1,-1,-1,-1,-1,-1,-1,-1,-1,-1,-1,-1,-1,-1,-1,-1,-1,-1,-1,-1,-1,-1,-1,-1,-1,-1,-1,-1],"split_conditions":[1E0,1E0,1E0,1E0,6.123234E-17,1.5E0,1E0,-2.4492937E-16,1E0,1E0,1.3640374E-2,8.3E1,1.03E2,1.0506149E-2,-6.128008E-3,2.2E1,5E-1,-8.660254E-1,5E-1,1E0,5E-1,8.1E1,1.7197846E-2,-8.9339283E-4,1E0,-1.8369701E-16,8.660254E-1,3E2,1.2246469E-16,3.69E2,1E0,1.7204842E-2,2.6095875E-3,1E0,1E0,1E0,-1.25447735E-2,1E0,-1.962019E-3,1.5491609E-2,2.661325E-3,0E0,-5E-1,2E0,9.8E1,8.660254E-1,4E0,1E0,1E0,1.4517554E-2,2.6508975E-3,1E0,3.69E2,-2.4492937E-16,0E0,-3.070242E-3,2.4594085E-3,5E-1,0E0,1.4491763E-2,4.9195224E-3,1.3318503E-3,-5.145404E-3,1.2591155E-2,-1.434562E-3,1.4436717E-2,-1.7215867E-3,9.976615E-3,-5.305192E-3,9.68493E-3,1.4197782E-2,4.2089676E-3,-1.0524969E-2,2.7794365E-3,1.7684221E-2,2.2452583E-3,-8.479801E-3,-5.2195177E-3,1.4142165E-2,-8.5441367E-4,1.3499839E-2,-3.358302E-3,-1.0934374E-2,-9.093306E-3,-6.3754516E-3,-8.552328E-3,-1.2253396E-2,6.613794E-5,-6.480315E-3],"split_indices":[24,21,7,1,31,33,17,30,30,17,0,35,35,0,0,35,31,31,33,9,30,35,0,0,1,31,31,35,30,35,18,0,0,1,1,8,0,1,0,0,0,33,30,33,35,30,34,19,2,0,0,31,35,30,33,0,0,33,33,0,0,0,0,0,0,0,0,0,0,0,0,0,0,0,0,0,0,0,0,0,0,0,0,0,0,0,0,0,0],"split_type":[0,0,0,0,0,0,0,0,0,0,0,0,0,0,0,0,0,0,0,0,0,0,0,0,0,0,0,0,0,0,0,0,0,0,0,0,0,0,0,0,0,0,0,0,0,0,0,0,0,0,0,0,0,0,0,0,0,0,0,0,0,0,0,0,0,0,0,0,0,0,0,0,0,0,0,0,0,0,0,0,0,0,0,0,0,0,0,0,0],"sum_hessian":[1.6653856E3,1.5009774E3,1.6440823E2,1.1527861E3,3.481913E2,1.611641E2,3.244148E0,6.643489E2,4.8843723E2,3.4220383E2,5.9875135E0,1.546742E2,6.4898987E0,1.9972013E0,1.2469467E0,4.056901E2,2.5865878E2,4.794482E2,8.989013E0,1.3947182E2,2.02732E2,1.0994926E1,1.4367926E2,2.2449827E0,4.244916E0,3.5130746E2,5.438263E1,1.5471881E2,1.03939964E2,1.1481582E1,4.6796664E2,7.740537E0,1.2484756E0,1.3524702E2,4.2247977E0,7.6793594E1,1.259384E2,9.745626E0,1.2493001E0,2.9968748E0,1.2480412E0,2.602953E2,9.101217E1,4.2170044E1,1.22125845E1,1.4549223E2,9.226575E0,6.483204E0,9.7456764E1,1.0233446E1,1.2481357E0,3.2595154E2,1.420151E2,3.3562855E1,1.01684166E2,1.4907644E0,2.7340333E0,6.510768E1,1.1685914E1,7.4967246E0,2.248902E0,6.0563175E1,1.9973212E2,3.8929226E1,5.2082943E1,4.092263E1,1.247415E0,4.4872336E0,7.725351E0,6.962057E1,7.587167E1,7.9804754E0,1.2460994E0,1.2468305E0,5.2363734E0,8.7990326E1,9.466437E0,3.239584E2,1.9931341E0,1.375249E2,4.490196E0,3.482425E0,3.008043E1,4.400427E1,5.76799E1,3.777494E1,2.733274E1,3.730809E0,7.9551053E0],"tree_param":{"num_deleted":"0","num_feature":"36","num_nodes":"89","size_leaf_vector":"1"}},{"base_weights":[7.9227163E-4,2.495856E-1,-9.235079E-1,-8.853162E-3,8.030473E-1,8.212965E-2,-9.671747E-1,-2.7594367E-1,3.6444974E-1,1.1407168E0,1.8396473E-1,-3.4504074E-1,1.0665674E0,-5.457726E-1,-1.0062867E0,-3.6934394E-1,8.996418E-1,1.3614694E0,2.4589378E-1,1.2304114E0,9.091871E-2,1.5176098E0,-3.3832324E-1,-5.0890255E-1,4.6309293E-3,1.3911866E-2,3.8610317E-3,1.2868853E-1,-8.694847E-1,-1.0527931E0,-6.927509E-1,1.2508999E0,-4.1022435E-1,9.8459446E-1,-7.354922E-3,1.570359E0,9.718854E-1,1.4775196E-1,1.4271562E0,1.5754877E0,1.0685835E0,1.3249005E-2,-7.723815E-2,7.094112E-1,1.5558975E0,-4.8255524E-1,1.4694862E0,-8.455607E-1,1.0925018E-1,4.4205454E-1,-1.1126997E-2,-1.3505136E0,1.0394981E-2,-1.122973E0,-8.363634E-1,-7.62567E-1,2.4524203E-1,-1.7406261E-3,1.428538E0,-5.48996E-1,-4.2786255E-2,4.1623324E-1,1.1558969E0,5.8566267E-4,1.7034907E-2,1.3765223E0,4.5615658E-1,1.0000917E0,9.230533E-3,1.5468534E0,5.7205206E-1,1.1102642E0,1.7686495E0,5.6106794E-1,1.2961547E0,-3.321092E-1,7.378365E-1,-1.9081444E-3,1.2357286E-2,8.524413E-1,1.6111119E-2,1.1280715E-2,-5.306765E-1,1.7460154E-2,4.023063E-3,-1.383293E-3,-9.807763E-3,-7.199361E-3,7.641023E-3,7.412924E-1,-3.6176024E-3,-1.5398734E-2,2.9969695E-3,-3.0508333E-1,8.88229E-3,-1.2758211E0,-1.0017247E0,-8.955049E-1,1.1044914E-1,-8.716012E-2,-8.7178475E-1,8.9345025E-3,-5.841914E-3,1.7408775E-2,8.40365E-3,-6.8773995E-3,-2.7944222E-3,-5.9242663E-3,1.9810253E-3,-2.5009972E-3,8.390522E-3,7.4190744E-3,1.4055866E-2,1.52924E-2,2.5568013E-3,6.26402E-3,-1.4304686E-3,2.3728209E-3,1.3695415E-2,-1.3431439E-3,6.851909E-3,1.6575482E-2,8.388746E-3,-3.6362398E-3,1.1156603E-2,1.631643E-2,6.020504E-3,1.7996157E-2,2.661284E-3,-2.9135593E-3,1.1284199E-2,1.3847992E-2,3.686697E-3,-6.523763E-3,4.2605386E-3,1.3070747E-2,-6.033099E-3,4.1428598E-4,1.1879172E-2,-5.7726926E-3,1.3045492E-2,1.2982285E-2,1.1135362E-3,-9.03459E-3,1.1535273E-3,-9.262718E-3,-1.4240837E-2,1.2493402E-3,-1.0274636E-2,-1.6663481E-3,-9.825996E-3,5.583412E-3,-4.591321E-3,-4.653535E-3,3.9665685E-3,-9.4436975E-3,-2.0043501E-4],"categories":[],"categories_nodes":[],"categories_segments":[],"categories_sizes":[],"default_left":[0,0,0,0,0,0,0,0,0,0,0,0,0,0,0,0,0,0,0,0,0,0,0,0,0,0,0,0,0,0,0,0,0,0,0,0,0,0,0,0,0,0,0,0,0,0,0,0,0,0,0,0,0,0,0,0,0,0,0,0,0,0,0,0,0,0,0,0,0,0,0,0,0,0,0,0,0,0,0,0,0,0,0,0,0,0,0,0,0,0,0,0,0,0,0,0,0,0,0,0,0,0,0,0,0,0,0,0,0,0,0,0,0,0,0,0,0,0,0,0,0,0,0,0,0,0,0,0,0,0,0,0,0,0,0,0,0,0,0,0,0,0,0,0,0,0,0,0,0,0,0,0,0,0,0,0,0],"id":5,"left_children":[1,3,5,7,9,11,13,15,17,19,21,23,25,27,29,31,33,35,37,39,41,43,45,47,-1,-1,-1,49,51,53,55,57,59,61,-1,63,65,67,69,71,73,-1,75,77,79,81,83,85,87,89,-1,91,93,95,97,99,101,-1,103,105,107,109,111,-1,-1,113,115,117,119,121,123,125,127,129,131,133,135,-1,-1,137,-1,-1,139,-1,-1,-1,-1,-1,-1,141,-1,-1,-1,143,-1,145,147,149,151,153,155,-1,-1,-1,-1,-1,-1,-1,-1,-1,-1,-1,-1,-1,-1,-1,-1,-1,-1,-1,-1,-1,-1,-1,-1,-1,-1,-1,-1,-1,-1,-1,-1,-1,-1,-1,-1,-1,-1,-1,-1,-1,-1,-1,-1,-1,-1,-1,-1,-1,-1,-1,-1,-1,-1,-1,-1],"loss_changes":[3.8479526E2,1.8859021E2,1.5663391E1,8.9810356E1,8.7523346E1,6.966072E0,5.05777E0,5.7983414E1,4.4072803E1,2.5440887E1,1.04516975E2,1.7847024E0,5.656533E-1,6.8972073E0,3.7926025E0,3.2778107E1,6.1327744E0,1.7050247E0,3.885621E1,1.2273346E1,4.7588406E0,2.0210266E-1,2.889861E1,2.2154953E0,0E0,0E0,0E0,4.7514563E0,8.956511E0,3.1334534E0,3.0017319E0,3.3456745E0,2.4241852E1,3.1641922E0,0E0,4.775505E0,2.8117323E0,3.6857353E1,1.7491188E0,5.017105E0,1.928238E1,0E0,4.544065E0,2.0110865E0,1.5906525E-1,8.41711E0,1.727871E0,5.0689125E-1,2.9842126E0,2.5432487E0,0E0,4.7324753E0,2.6139812E0,2.4203033E0,3.994751E0,2.8929005E0,2.5296187E0,0E0,5.5552673E-1,1.2723236E1,1.7533924E1,3.0931196E0,1.872921E0,0E0,0E0,1.1051254E0,9.8140895E-1,1.1974506E1,2.625224E1,3.3267212E-1,2.8200936E0,5.7684155E0,1.9965668E0,2.712086E1,9.260956E0,4.2733088E0,4.7889442E0,0E0,0E0,1.309804E0,0E0,0E0,9.186764E0,0E0,0E0,0E0,0E0,0E0,0E0,2.3886712E0,0E0,0E0,0E0,1.8572253E0,0E0,3.066452E0,3.4904099E0,4.000168E0,1.5269445E0,1.4129754E0,2.1160698E0,0E0,0E0,0E0,0E0,0E0,0E0,0E0,0E0,0E0,0E0,0E0,0E0,0E0,0E0,0E0,0E0,0E0,0E0,0E0,0E0,0E0,0E0,0E0,0E0,0E0,0E0,0E0,0E0,0E0,0E0,0E0,0E0,0E0,0E0,0E0,0E0,0E0,0E0,0E0,0E0,0E0,0E0,0E0,0E0,0E0,0E0,0E0,0E0,0E0,0E0,0E0,0E0,0E0,0E0,0E0,0E0],"parents":[2147483647,0,0,1,1,2,2,3,3,4,4,5,5,6,6,7,7,8,8,9,9,10,10,11,11,12,12,13,13,14,14,15,15,16,16,17,17,18,18,19,19,20,20,21,21,22,22,23,23,27,27,28,28,29,29,30,30,31,31,32,32,33,33,35,35,36,36,37,37,38,38,39,39,40,40,42,42,43,43,44,44,45,45,46,46,47,47,48,48,49,49,51,51,52,52,53,53,54,54,55,55,56,56,58,58,59,59,60,60,61,61,62,62,65,65,66,66,67,67,68,68,69,69,70,70,71,71,72,72,73,73,74,74,75,75,76,76,79,79,82,82,89,89,93,93,95,95,96,96,97,97,98,98,99,99,100,100],"right_children":[2,4,6,8,10,12,14,16,18,20,22,24,26,28,30,32,34,36,38,40,42,44,46,48,-1,-1,-1,50,52,54,56,58,60,62,-1,64,66,68,70,72,74,-1,76,78,80,82,84,86,88,90,-1,92,94,96,98,100,102,-1,104,106,108,110,112,-1,-1,114,116,118,120,122,124,126,128,130,132,134,136,-1,-1,138,-1,-1,140,-1,-1,-1,-1,-1,-1,142,-1,-1,-1,144,-1,146,148,150,152,154,156,-1,-1,-1,-1,-1,-1,-1,-1,-1,-1,-1,-1,-1,-1,-1,-1,-1,-1,-1,-1,-1,-1,-1,-1,-1,-1,-1,-1,-1,-1,-1,-1,-1,-1,-1,-1,-1,-1,-1,-1,-1,-1,-1,-1,-1,-1,-1,-1,-1,-1,-1,-1,-1,-1,-1,-1],"split_conditions":[1E0,9E0,-2.4492937E-16,-2.4492937E-16,2.05E2,2.8821507E-1,1E0,4E0,5E-1,1E0,5E-1,3E0,7.3335415E-1,5E-1,1E0,-8.660254E-1,2E0,1E0,1E0,-5E-1,-8.9780456E-1,2.25E2,3.72E2,1E0,4.6309293E-3,1.3911866E-2,3.8610317E-3,2.0568928E-1,5.28964E-1,1E0,9.795299E-1,-2.7571115E-1,1E0,-6.1210597E-1,-7.354922E-3,-2.863395E-1,1.3004063E-1,-5.712682E-1,1E0,-6.1210597E-1,-3.9435586E-1,1.3249005E-2,9.377931E-1,-5E-1,-9.5413923E-1,-8.9780456E-1,5E-1,-3.344795E-1,-5E-1,1E0,-1.1126997E-2,4.3638638E-1,1E0,-1.7380431E-1,9.795299E-1,-8.743466E-1,3E0,-1.7406261E-3,1E0,1.0116832E-1,-2.7571115E-1,0E0,2.7758676E-1,5.8566267E-4,1.7034907E-2,1E0,2.2269459E0,-4.4039416E-1,9.971866E-1,4E0,2E0,2.0129852E-1,2E0,-2.5065252E-1,1E0,1E0,2.6689591E0,-1.9081444E-3,1.2357286E-2,3.04E2,1.6111119E-2,1.1280715E-2,1E0,1.7460154E-2,4.023063E-3,-1.383293E-3,-9.807763E-3,-7.199361E-3,7.641023E-3,6.8896693E-1,-3.6176024E-3,-1.5398734E-2,2.9969695E-3,1E0,8.88229E-3,5E-1,-1.6692716E-1,-9.5413923E-1,1.0628321E-2,-9.5413923E-1,1E0,8.9345025E-3,-5.841914E-3,1.7408775E-2,8.40365E-3,-6.8773995E-3,-2.7944222E-3,-5.9242663E-3,1.9810253E-3,-2.5009972E-3,8.390522E-3,7.4190744E-3,1.4055866E-2,1.52924E-2,2.5568013E-3,6.26402E-3,-1.4304686E-3,2.3728209E-3,1.3695415E-2,-1.3431439E-3,6.851909E-3,1.6575482E-2,8.388746E-3,-3.6362398E-3,1.1156603E-2,1.631643E-2,6.020504E-3,1.7996157E-2,2.661284E-3,-2.9135593E-3,1.1284199E-2,1.3847992E-2,3.686697E-3,-6.523763E-3,4.2605386E-3,1.3070747E-2,-6.033099E-3,4.1428598E-4,1.1879172E-2,-5.7726926E-3,1.3045492E-2,1.2982285E-2,1.1135362E-3,-9.03459E-3,1.1535273E-3,-9.262718E-3,-1.4240837E-2,1.2493402E-3,-1.0274636E-2,-1.6663481E-3,-9.825996E-3,5.583412E-3,-4.591321E-3,-4.653535E-3,3.9665685E-3,-9.4436975E-3,-2.0043501E-4],"split_indices":[21,35,30,30,35,32,27,27,30,2,30,27,32,30,16,30,33,18,30,30,28,35,35,18,0,0,0,32,29,18,29,32,18,29,0,32,32,28,33,29,28,0,32,30,29,28,33,32,30,33,0,32,8,32,29,29,27,0,8,28,32,33,32,0,0,4,32,29,32,27,26,28,33,29,33,18,32,0,0,35,0,0,30,0,0,0,0,0,0,29,0,0,0,18,0,30,32,29,32,29,9,0,0,0,0,0,0,0,0,0,0,0,0,0,0,0,0,0,0,0,0,0,0,0,0,0,0,0,0,0,0,0,0,0,0,0,0,0,0,0,0,0,0,0,0,0,0,0,0,0,0,0,0,0,0,0,0],"split_type":[0,0,0,0,0,0,0,0,0,0,0,0,0,0,0,0,0,0,0,0,0,0,0,0,0,0,0,0,0,0,0,0,0,0,0,0,0,0,0,0,0,0,0,0,0,0,0,0,0,0,0,0,0,0,0,0,0,0,0,0,0,0,0,0,0,0,0,0,0,0,0,0,0,0,0,0,0,0,0,0,0,0,0,0,0,0,0,0,0,0,0,0,0,0,0,0,0,0,0,0,0,0,0,0,0,0,0,0,0,0,0,0,0,0,0,0,0,0,0,0,0,0,0,0,0,0,0,0,0,0,0,0,0,0,0,0,0,0,0,0,0,0,0,0,0,0,0,0,0,0,0,0,0,0,0,0,0],"sum_hessian":[1.6713136E3,1.3174314E3,3.5388223E2,8.9874615E2,4.186852E2,1.4690148E1,3.3919208E2,5.2405585E2,3.746903E2,2.7037213E2,1.4831306E2,1.0697681E1,3.9924674E0,3.0078068E1,3.09114E2,4.8611948E2,3.7936375E1,3.8705452E1,3.3598486E2,2.489314E2,2.1440727E1,4.1201275E1,1.0711179E2,9.202087E0,1.4955935E0,1.9958631E0,1.9966044E0,9.949834E0,2.0128233E1,2.6713272E2,4.1981293E1,1.1235006E1,4.7488446E2,3.6440952E1,1.4954232E0,2.3222828E1,1.5482625E1,3.1125058E2,2.473429E1,7.668193E1,1.7224947E2,1.7463765E0,1.9694351E1,2.7468872E0,3.8454388E1,9.987645E1,7.2353454E0,5.7193394E0,3.482748E0,8.458533E0,1.4913007E0,1.2667853E1,7.46038E0,1.9855904E2,6.857369E1,3.9247097E1,2.7341936E0,1.24756E0,9.987446E0,3.4434164E2,1.3054283E2,9.233872E0,2.7207079E1,1.9960753E0,2.1226753E1,7.7404466E0,7.742178E0,4.2643013E1,2.6860757E2,2.09875E1,3.7467887E0,2.4477217E1,5.2204712E1,5.4398552E1,1.1785092E2,1.5454366E1,4.2399864E0,1.2486392E0,1.498248E0,3.9950085E0,3.445938E1,2.2464113E0,9.7630035E1,5.241149E0,1.9941964E0,1.2426755E0,4.4766636E0,1.492954E0,1.9897941E0,6.22057E0,2.237963E0,1.1423842E1,1.2440106E0,5.9680324E0,1.4923481E0,8.362155E1,1.14937485E2,6.459315E1,3.980547E0,5.7133784E0,3.353372E1,1.4914405E0,1.2427529E0,5.243282E0,4.744164E0,2.2630641E2,1.1803522E2,3.9334118E1,9.120872E1,3.743257E0,5.490615E0,1.1729952E1,1.5477127E1,6.491585E0,1.248862E0,5.993824E0,1.7483542E0,1.4450033E1,2.8192978E1,2.2221909E2,4.638848E1,1.6989841E1,3.9976583E0,1.4985421E0,2.2482467E0,1.0990976E1,1.348624E1,5.0956783E1,1.2479265E0,2.1932419E1,3.2466133E1,1.0711986E2,1.0731061E1,1.0962894E1,4.491471E0,2.9944303E0,1.245556E0,1.4977326E0,2.4972758E0,9.588125E1,1.748787E0,2.7385266E0,3.4820433E0,1.9887413E0,3.979291E0,2.706342E1,5.655813E1,2.481046E0,1.12456436E2,7.2055206E0,5.7387627E1,2.239356E0,1.7411909E0,3.228143E0,2.4852352E0,3.0800188E1,2.733531E0],"tree_param":{"num_deleted":"0","num_feature":"36","num_nodes":"157","size_leaf_vector":"1"}},{"base_weights":[-5.7051345E-3,-1.8142223E-1,1.6214148E0,3.9099675E-2,-9.226495E-1,1.6304793E0,2.4574883E-3,-4.480416E-2,1.0881522E0,-9.7283256E-1,6.684622E-1,1.6394296E0,2.6342308E-3,1.2811277E0,-1.04435526E-1,1.2169311E0,7.7042276E-1,-4.8765388E-1,-1.0165696E0,-4.9728934E-2,1.3621006E-2,1.0258108E0,1.660619E-2,2.1342612E-3,1.3302456E0,5.945526E-1,-1.9552831E-1,1.2558299E0,5.85635E-4,1.4327741E-2,6.072021E-1,6.906444E-2,-7.0230454E-1,-1.0669767E0,-6.083822E-1,-4.7287583E-1,3.3251157E-1,1.3512411E0,3.259577E-4,1.3666703E0,3.7062785E-3,1.8014005E-1,9.152465E-1,-3.4242892E-1,1.8425247E-1,1.2806404E0,3.7396934E-3,-5.1608866E-1,7.6179445E-1,7.029238E-1,-5.486018E-1,-1.234293E-2,-2.4981515E-1,-9.2776394E-1,-1.2024088E0,-4.3063378E-1,-1.2116E0,3.0265313E-3,-1.0374955E-2,7.2198585E-3,-1.0761411E-3,1.5722027E-2,4.1297395E-3,1.4029695E-2,4.964757E-3,-2.7092919E-3,6.4496505E-3,1.3983621E-2,4.266046E-3,-3.6933364E-3,1.3269905E-2,4.6899533E-3,-1.7085528E-3,1.2992357E-2,2.5887256E-3,-6.250182E-3,-1.7755161E-3,1.1037413E-2,4.5308615E-3,1.0233817E-2,-1.4450498E-3,-1.034833E-2,2.6940282E-3,7.953472E-4,-9.461318E-3,-9.65578E-3,-2.4902867E-3,-1.2499015E-2,-8.082365E-3,-6.0234205E-3,3.8970746E-3,-1.469963E-2,-5.423914E-3],"categories":[],"categories_nodes":[],"categories_segments":[],"categories_sizes":[],"default_left":[0,0,0,0,0,0,0,0,0,0,0,0,0,0,0,0,0,0,0,0,0,0,0,0,0,0,0,0,0,0,0,0,0,0,0,0,0,0,0,0,0,0,0,0,0,0,0,0,0,0,0,0,0,0,0,0,0,0,0,0,0,0,0,0,0,0,0,0,0,0,0,0,0,0,0,0,0,0,0,0,0,0,0,0,0,0,0,0,0,0,0,0,0],"id":6,"left_children":[1,3,5,7,9,11,-1,13,15,17,19,21,-1,23,25,27,29,31,33,35,-1,37,-1,-1,39,41,43,45,-1,-1,47,49,51,53,55,57,59,61,-1,63,-1,65,67,69,71,73,-1,75,77,79,81,-1,83,85,87,89,91,-1,-1,-1,-1,-1,-1,-1,-1,-1,-1,-1,-1,-1,-1,-1,-1,-1,-1,-1,-1,-1,-1,-1,-1,-1,-1,-1,-1,-1,-1,-1,-1,-1,-1,-1,-1],"loss_changes":[4.8027658E2,2.4784427E2,1.6409302E0,1.0297772E2,2.840979E1,1.5561218E0,0E0,8.58225E1,2.607544E0,6.6647644E0,5.6583886E0,3.9279175E-1,0E0,2.166092E0,6.6210434E1,2.6267242E0,2.1261578E0,3.612618E0,5.700714E0,1.2050848E0,0E0,2.5409584E0,0E0,0E0,1.0479202E0,1.577346E1,5.1339787E1,7.885895E-1,0E0,0E0,4.5556355E0,3.9914649E0,4.8948526E0,4.0384216E0,3.3647995E0,1.8411286E0,7.6180387E-1,5.944691E-1,0E0,6.450653E-1,0E0,1.1405426E1,1.5305992E1,3.0273354E1,2.6066893E1,7.264099E-1,0E0,1.7945945E-2,1.7667761E0,1.501301E0,2.3574672E0,0E0,3.041453E0,3.3316574E0,1.520462E0,4.3970475E0,5.337963E-1,0E0,0E0,0E0,0E0,0E0,0E0,0E0,0E0,0E0,0E0,0E0,0E0,0E0,0E0,0E0,0E0,0E0,0E0,0E0,0E0,0E0,0E0,0E0,0E0,0E0,0E0,0E0,0E0,0E0,0E0,0E0,0E0,0E0,0E0,0E0,0E0],"parents":[2147483647,0,0,1,1,2,2,3,3,4,4,5,5,7,7,8,8,9,9,10,10,11,11,13,13,14,14,15,15,16,16,17,17,18,18,19,19,21,21,24,24,25,25,26,26,27,27,30,30,31,31,32,32,33,33,34,34,35,35,36,36,37,37,39,39,41,41,42,42,43,43,44,44,45,45,47,47,48,48,49,49,50,50,52,52,53,53,54,54,55,55,56,56],"right_children":[2,4,6,8,10,12,-1,14,16,18,20,22,-1,24,26,28,30,32,34,36,-1,38,-1,-1,40,42,44,46,-1,-1,48,50,52,54,56,58,60,62,-1,64,-1,66,68,70,72,74,-1,76,78,80,82,-1,84,86,88,90,92,-1,-1,-1,-1,-1,-1,-1,-1,-1,-1,-1,-1,-1,-1,-1,-1,-1,-1,-1,-1,-1,-1,-1,-1,-1,-1,-1,-1,-1,-1,-1,-1,-1,-1,-1,-1],"split_conditions":[1E0,1E0,1.3E1,4E0,-5E-1,1E0,2.4574883E-3,-8.660254E-1,5.28964E-1,1E0,1.744295E-1,7.1E1,2.6342308E-3,-3.4260705E-1,1E0,1E0,-3.2197562E-1,-8.660254E-1,9.189578E-1,6.123234E-17,1.3621006E-2,1E0,1.660619E-2,2.1342612E-3,3E2,-5E-1,5.501719E-1,7E0,5.85635E-4,1.4327741E-2,-2.0381369E-1,6.8896693E-1,-1.7005314E-1,-2.5065252E-1,1E0,-1.8369701E-16,1E0,6.2E1,3.259577E-4,1E0,3.7062785E-3,-1.9193497E-1,1.5142778E-1,3.72E2,1E0,8.812754E0,3.7396934E-3,-1.0116832E-1,-1.0116832E-1,8.9780456E-1,6.513725E-1,-1.234293E-2,1E0,7.247928E-1,1E0,1E0,1E0,3.0265313E-3,-1.0374955E-2,7.2198585E-3,-1.0761411E-3,1.5722027E-2,4.1297395E-3,1.4029695E-2,4.964757E-3,-2.7092919E-3,6.4496505E-3,1.3983621E-2,4.266046E-3,-3.6933364E-3,1.3269905E-2,4.6899533E-3,-1.7085528E-3,1.2992357E-2,2.5887256E-3,-6.250182E-3,-1.7755161E-3,1.1037413E-2,4.5308615E-3,1.0233817E-2,-1.4450498E-3,-1.034833E-2,2.6940282E-3,7.953472E-4,-9.461318E-3,-9.65578E-3,-2.4902867E-3,-1.2499015E-2,-8.082365E-3,-6.0234205E-3,3.8970746E-3,-1.469963E-2,-5.423914E-3],"split_indices":[24,21,34,27,31,21,0,31,29,27,32,35,0,32,27,2,32,31,29,31,0,1,0,0,35,31,32,34,0,0,32,29,32,29,2,31,18,35,0,2,0,32,29,35,1,32,0,28,28,28,28,0,5,28,4,16,5,0,0,0,0,0,0,0,0,0,0,0,0,0,0,0,0,0,0,0,0,0,0,0,0,0,0,0,0,0,0,0,0,0,0,0,0],"split_type":[0,0,0,0,0,0,0,0,0,0,0,0,0,0,0,0,0,0,0,0,0,0,0,0,0,0,0,0,0,0,0,0,0,0,0,0,0,0,0,0,0,0,0,0,0,0,0,0,0,0,0,0,0,0,0,0,0,0,0,0,0,0,0,0,0,0,0,0,0,0,0,0,0,0,0,0,0,0,0,0,0,0,0,0,0,0,0,0,0,0,0,0,0],"sum_hessian":[1.6777721E3,1.5150465E3,1.627255E2,1.1683877E3,3.4665884E2,1.6147627E2,1.2492285E0,1.0827463E3,8.5641396E1,3.3643634E2,1.0222496E1,1.60228E2,1.2482635E0,4.571725E1,1.037029E3,5.8927433E1,2.6713964E1,2.8825222E1,3.076111E2,5.478441E0,4.7440553E0,6.9976E0,1.5323041E2,2.2457356E0,4.3471516E1,1.1892759E2,9.181015E2,5.6931496E1,1.995938E0,3.7437296E0,2.2970236E1,8.210001E0,2.0615221E1,2.7236304E2,3.524807E1,2.4875567E0,2.9908845E0,4.999142E0,1.998458E0,4.147312E1,1.9983925E0,5.256408E1,6.636351E1,6.6209796E2,2.5600354E2,5.4933773E1,1.9977217E0,2.4959452E0,2.047429E1,3.9837642E0,4.2262363E0,8.681115E0,1.1934107E1,1.3817812E2,1.3418492E2,2.8549395E1,6.6986766E0,1.2435112E0,1.2440455E0,1.2469925E0,1.7438922E0,3.499392E0,1.4997503E0,3.922466E1,2.2484646E0,2.6888468E1,2.567561E1,3.2434296E1,3.392922E1,6.523631E2,9.73487E0,1.4190024E2,1.1410331E2,5.3685192E1,1.2485807E0,1.2481124E0,1.2478327E0,8.492287E0,1.1982003E1,2.7399948E0,1.2437695E0,2.4844067E0,1.7418298E0,8.703316E0,3.2307913E0,1.304858E2,7.6923203E0,1.178184E2,1.6366531E1,2.3827686E1,4.7217083E0,3.9695656E0,2.729111E0],"tree_param":{"num_deleted":"0","num_feature":"36","num_nodes":"93","size_leaf_vector":"1"}},{"base_weights":[-2.127095E-3,2.4697492E-1,-9.366651E-1,1.2101644E-2,7.6000404E-1,-9.80454E-1,1.0623285E0,-7.27599E-2,1.0119722E0,1.2267861E0,1.5386629E-1,-7.2422755E-1,-1.1444634E0,-1.2451619E-3,1.4141847E0,1.2124428E0,-1.2727144E-1,1.0567343E0,-4.807652E-3,1.4075572E0,6.143646E-1,1.7798213E-2,1.5548344E0,-7.7813876E-1,1.318097E-1,-1.1544825E0,2.8601082E-3,2.783728E-3,1.6418606E-2,5.3430945E-1,1.3684549E0,-3.1712636E-1,2.4769965E-1,1.1919872E0,6.9657534E-1,1.5139322E0,9.25515E-1,3.1123278E-1,1.6177257E0,8.672935E-1,-3.076698E-1,8.3389276E-1,1.7849693E-2,-8.45731E-1,-1.2088297E-1,4.5812318E-1,-3.9054224E-1,-1.415452E0,-1.0674462E0,7.513191E-1,-1.5326221E-3,1.6217731E0,9.950024E-1,-2.6356013E-2,-4.8322344E-1,5.8974785E-1,-1.7449386E-4,5.1727366E-1,1.2447977E0,1.1449323E0,1.9605505E-1,1.5348859E0,-1.3151072E-3,2.3372132E-1,1.361437E0,1.3964204E-2,1.2541924E-1,1.7521327E-2,2.267723E-3,9.742753E-1,-6.0500777E-1,1.5222715E-2,-3.9160335E-1,1.1599823E-2,-1.8893823E-3,-3.7985688E-1,-9.4183564E-1,4.7490108E-1,-7.2119945E-1,-5.7631093E-3,8.513299E-1,-5.8692377E-3,-8.7249867E-4,-1.4410067E-2,-5.415198E-3,-9.8513883E-1,-1.4983218E-2,1.472087E-3,1.3565666E-2,4.5136106E-3,1.7218806E-2,1.4575652E-2,6.248819E-3,1.5180566E-3,-5.642707E-3,-5.0040125E-3,1.4436117E-2,8.086491E-3,3.1298462E-3,-5.255562E-3,3.1856303E-3,-7.649024E-3,1.2339322E-2,1.2675168E-2,2.5462087E-3,3.15834E-3,1.7241055E-2,9.474841E-3,-4.2264393E-4,1.5576824E-2,4.842165E-3,-2.904444E-3,9.42045E-3,1.49183385E-2,1.7981724E-3,-9.4187836E-4,7.992688E-3,5.9460113E-3,1.380617E-2,2.56847E-3,-1.1391048E-2,-2.3036806E-3,-1.1465684E-2,4.6161604E-3,-5.5297194E-3,-2.1803922E-3,-9.851422E-3,7.83172E-3,-2.2237192E-4,-9.576652E-3,8.6991093E-4,1.283362E-2,2.5571608E-3,-4.987524E-3,-1.0395086E-2],"categories":[],"categories_nodes":[],"categories_segments":[],"categories_sizes":[],"default_left":[0,0,0,0,0,0,0,0,0,0,0,0,0,0,0,0,0,0,0,0,0,0,0,0,0,0,0,0,0,0,0,0,0,0,0,0,0,0,0,0,0,0,0,0,0,0,0,0,0,0,0,0,0,0,0,0,0,0,0,0,0,0,0,0,0,0,0,0,0,0,0,0,0,0,0,0,0,0,0,0,0,0,0,0,0,0,0,0,0,0,0,0,0,0,0,0,0,0,0,0,0,0,0,0,0,0,0,0,0,0,0,0,0,0,0,0,0,0,0,0,0,0,0,0,0,0,0,0,0,0,0,0,0,0,0],"id":7,"left_children":[1,3,5,7,9,11,13,15,17,19,21,23,25,-1,27,29,31,33,-1,35,37,39,41,43,45,47,-1,-1,-1,49,51,53,55,57,59,61,63,65,67,69,71,73,-1,75,77,79,81,83,85,87,-1,89,91,93,95,97,99,101,103,105,107,109,-1,111,113,-1,115,-1,-1,117,119,-1,121,-1,-1,123,125,127,129,-1,131,-1,-1,-1,-1,133,-1,-1,-1,-1,-1,-1,-1,-1,-1,-1,-1,-1,-1,-1,-1,-1,-1,-1,-1,-1,-1,-1,-1,-1,-1,-1,-1,-1,-1,-1,-1,-1,-1,-1,-1,-1,-1,-1,-1,-1,-1,-1,-1,-1,-1,-1,-1,-1,-1],"loss_changes":[3.8754202E2,1.583706E2,3.1708984E1,7.6662415E1,1.1659471E2,1.3600372E1,3.5127134E0,5.8509377E1,5.2309113E0,2.4934814E1,3.442189E1,6.4126587E0,3.3059082E0,0E0,1.1575937E0,2.8645248E0,5.702795E1,2.527794E0,0E0,7.785431E0,1.6189936E1,4.608859E1,1.1639328E0,5.6185684E0,1.7054523E0,3.1768494E0,0E0,0E0,0E0,1.3084061E0,9.3961334E-1,2.5657112E1,2.2845627E1,1.0917587E0,4.539048E0,5.2079163E0,1.0224911E1,8.5739565E0,1.9388885E0,7.861603E0,1.9113483E1,2.1353621E0,0E0,4.862671E0,5.0546355E0,2.9199314E0,1.8604481E-1,3.0392456E-1,4.1569214E0,2.0848274E0,0E0,9.210167E-1,1.3997173E0,1.8705732E1,1.1917007E1,6.606163E0,2.6497572E1,5.765103E0,6.7752075E-1,4.7328596E0,2.05228E0,2.681549E0,0E0,5.7394013E0,3.0043106E0,0E0,5.7199926E0,0E0,0E0,5.8786125E0,2.0162115E0,0E0,1.3864597E1,0E0,0E0,3.4040413E0,2.793808E0,1.1231983E0,1.4133437E0,0E0,8.8928175E-1,0E0,0E0,0E0,0E0,3.0854187E0,0E0,0E0,0E0,0E0,0E0,0E0,0E0,0E0,0E0,0E0,0E0,0E0,0E0,0E0,0E0,0E0,0E0,0E0,0E0,0E0,0E0,0E0,0E0,0E0,0E0,0E0,0E0,0E0,0E0,0E0,0E0,0E0,0E0,0E0,0E0,0E0,0E0,0E0,0E0,0E0,0E0,0E0,0E0,0E0,0E0,0E0,0E0,0E0,0E0],"parents":[2147483647,0,0,1,1,2,2,3,3,4,4,5,5,6,6,7,7,8,8,9,9,10,10,11,11,12,12,14,14,15,15,16,16,17,17,19,19,20,20,21,21,22,22,23,23,24,24,25,25,29,29,30,30,31,31,32,32,33,33,34,34,35,35,36,36,37,37,38,38,39,39,40,40,41,41,43,43,44,44,45,45,46,46,47,47,48,48,49,49,51,51,52,52,53,53,54,54,55,55,56,56,57,57,58,58,59,59,60,60,61,61,63,63,64,64,66,66,69,69,70,70,72,72,75,75,76,76,77,77,78,78,80,80,85,85],"right_children":[2,4,6,8,10,12,14,16,18,20,22,24,26,-1,28,30,32,34,-1,36,38,40,42,44,46,48,-1,-1,-1,50,52,54,56,58,60,62,64,66,68,70,72,74,-1,76,78,80,82,84,86,88,-1,90,92,94,96,98,100,102,104,106,108,110,-1,112,114,-1,116,-1,-1,118,120,-1,122,-1,-1,124,126,128,130,-1,132,-1,-1,-1,-1,134,-1,-1,-1,-1,-1,-1,-1,-1,-1,-1,-1,-1,-1,-1,-1,-1,-1,-1,-1,-1,-1,-1,-1,-1,-1,-1,-1,-1,-1,-1,-1,-1,-1,-1,-1,-1,-1,-1,-1,-1,-1,-1,-1,-1,-1,-1,-1,-1,-1],"split_conditions":[1E0,9E0,6.123234E-17,4E0,1E0,1E0,-7.587581E-1,-8.660254E-1,1E0,2.1E2,3.72E2,9.795299E-1,-5E-1,-1.2451619E-3,-1.5317287E-1,1E0,1E0,5.28964E-1,-4.807652E-3,8.660254E-1,3.77E2,1.33E2,4.17E2,1.6148796E0,2E0,-3.1009692E-1,2.8601082E-3,2.783728E-3,1.6418606E-2,1.3260394E0,2E0,0E0,0E0,-9.5413923E-1,2.9936314E-1,2.5E0,-3.9435586E-1,-6.513725E-1,1E0,1E0,-8.9780456E-1,3.4730524E-1,1.7849693E-2,1E0,2.8840263E0,1E0,-8.815255E-2,1E0,1.7592998E0,-1.4379494E-2,-1.5326221E-3,-3.0447015E-1,1.0315724E-1,8.660254E-1,1E0,1.5142778E-1,-1.8818381E-1,0E0,1E0,3.119725E-1,-5E-1,1E0,-1.3151072E-3,-2.5065252E-1,9.189578E-1,1.3964204E-2,1E0,1.7521327E-2,2.267723E-3,2E0,-1.0116832E-1,1.5222715E-2,8.660254E-1,1.1599823E-2,-1.8893823E-3,-7.247928E-1,-4.60769E-1,2.0129852E-1,1E0,-5.7631093E-3,1.0628321E-2,-5.8692377E-3,-8.7249867E-4,-1.4410067E-2,-5.415198E-3,-7.907757E-1,-1.4983218E-2,1.472087E-3,1.3565666E-2,4.5136106E-3,1.7218806E-2,1.4575652E-2,6.248819E-3,1.5180566E-3,-5.642707E-3,-5.0040125E-3,1.4436117E-2,8.086491E-3,3.1298462E-3,-5.255562E-3,3.1856303E-3,-7.649024E-3,1.2339322E-2,1.2675168E-2,2.5462087E-3,3.15834E-3,1.7241055E-2,9.474841E-3,-4.2264393E-4,1.5576824E-2,4.842165E-3,-2.904444E-3,9.42045E-3,1.49183385E-2,1.7981724E-3,-9.4187836E-4,7.992688E-3,5.9460113E-3,1.380617E-2,2.56847E-3,-1.1391048E-2,-2.3036806E-3,-1.1465684E-2,4.6161604E-3,-5.5297194E-3,-2.1803922E-3,-9.851422E-3,7.83172E-3,-2.2237192E-4,-9.576652E-3,8.6991093E-4,1.283362E-2,2.5571608E-3,-4.987524E-3,-1.0395086E-2],"split_indices":[21,35,31,27,22,17,29,31,2,35,35,29,31,0,32,27,18,29,0,31,35,35,35,32,26,32,0,0,0,32,26,33,33,29,28,33,28,28,16,33,28,29,0,27,32,27,32,9,32,32,0,32,32,31,31,29,32,33,4,32,31,7,0,29,29,0,8,0,0,26,28,0,31,0,0,28,32,28,8,0,32,0,0,0,0,28,0,0,0,0,0,0,0,0,0,0,0,0,0,0,0,0,0,0,0,0,0,0,0,0,0,0,0,0,0,0,0,0,0,0,0,0,0,0,0,0,0,0,0,0,0,0,0,0,0],"split_type":[0,0,0,0,0,0,0,0,0,0,0,0,0,0,0,0,0,0,0,0,0,0,0,0,0,0,0,0,0,0,0,0,0,0,0,0,0,0,0,0,0,0,0,0,0,0,0,0,0,0,0,0,0,0,0,0,0,0,0,0,0,0,0,0,0,0,0,0,0,0,0,0,0,0,0,0,0,0,0,0,0,0,0,0,0,0,0,0,0,0,0,0,0,0,0,0,0,0,0,0,0,0,0,0,0,0,0,0,0,0,0,0,0,0,0,0,0,0,0,0,0,0,0,0,0,0,0,0,0,0,0,0,0,0,0],"sum_hessian":[1.6627395E3,1.3133899E3,3.493496E2,9.0163153E2,4.1175833E2,3.423596E2,6.9900265E0,8.3194916E2,6.9682396E1,2.320412E2,1.7971712E2,1.3572957E2,2.0663E2,1.7461644E0,5.243862E0,3.2986813E1,7.9896234E2,6.793727E1,1.7451242E0,1.7815582E2,5.3885384E1,1.6473048E2,1.4986633E1,1.27773674E2,7.9558916E0,2.0538445E2,1.245564E0,1.2467662E0,3.9970958E0,6.997184E0,2.598963E1,5.305096E2,2.6845273E2,4.7710587E1,2.0226685E1,1.4419487E2,3.396095E1,4.2389126E1,1.1496259E1,4.5169647E1,1.1956084E2,4.745125E0,1.02415085E1,1.1559873E2,1.2174945E1,4.972518E0,2.9833734E0,4.7549416E1,1.5783504E2,5.248083E0,1.7491004E0,1.3493886E1,1.2495743E1,1.9329141E2,3.3721817E2,1.122192E2,1.5623354E2,4.246878E0,4.3463707E1,9.990179E0,1.0236506E1,1.4244807E2,1.7467862E0,1.3721515E1,2.0239435E1,5.244579E0,3.7144547E1,1.0246484E1,1.249775E0,4.242517E1,2.744477E0,4.491844E0,1.1506899E2,3.496358E0,1.2487668E0,2.0615608E1,9.498312E1,6.215393E0,5.9595513E0,1.2412949E0,3.731223E0,1.2432168E0,1.7401568E0,4.5568077E1,1.9813397E0,1.3527977E2,2.2555254E1,3.248704E0,1.9993793E0,1.4972678E0,1.1996618E1,4.2482967E0,8.247446E0,1.457392E2,4.7552208E1,3.3497217E2,2.245993E0,6.1586533E1,5.0632668E1,5.8748417E1,9.7485115E1,1.4985322E0,2.748346E0,4.221501E1,1.2486955E0,4.74415E0,5.2460294E0,1.7483168E0,8.48819E0,1.3895067E2,3.497408E0,8.224942E0,5.496573E0,1.7991463E1,2.247972E0,2.8663391E1,8.481154E0,2.3205715E1,1.9219456E1,1.2486585E0,1.4958185E0,9.589431E1,1.9174679E1,3.2332048E0,1.7382404E1,5.702939E0,8.928018E1,3.481306E0,2.7340872E0,4.4674773E0,1.4920739E0,1.493335E0,2.237888E0,1.4624446E1,1.20655334E2],"tree_param":{"num_deleted":"0","num_feature":"36","num_nodes":"135","size_leaf_vector":"1"}},{"base_weights":[1.0479935E-2,2.5268516E-1,-9.101192E-1,2.1087978E-2,7.688922E-1,-9.447359E-1,9.16404E-1,-2.5773892E-1,4.0175307E-1,1.2841114E0,1.3258702E-1,-7.276184E-1,-1.0918593E0,1.1996109E-2,2.19495E-3,-3.4602216E-1,8.5376316E-1,7.7387977E-1,-6.121934E-2,1.5437719E0,7.4019516E-1,7.038164E-1,-2.9506442E-1,-9.0650195E-1,-5.8358365E-1,-8.272488E-1,-1.2415149E0,6.212176E-1,-4.271464E-1,9.2088115E-1,-2.6566333E-3,1.212014E0,1.5241793E-1,-1.2131352E-1,1.4426884E-2,1.685254E-2,1.0561067E0,9.3201447E-1,-2.9647022E-2,1.4825597E0,-2.2247836E-1,-4.275835E-1,1.5090781E-2,-1.1930329E0,-7.9315466E-1,-9.979485E-1,-4.16776E-1,6.1145365E-1,-8.9437205E-1,-1.2529705E-2,-5.2501005E-1,2.268407E-1,1.1458558E0,-8.119708E-2,-5.754777E-1,9.6902823E-1,4.7736854E-4,9.6736854E-1,1.3893636E0,1.3870701E0,6.355113E-2,1.0610642E0,-1.8127298E-1,1.4401252E0,3.783561E-1,1.286896E0,4.4675347E-1,-7.249836E-1,1.0284696E0,-3.8120206E-3,1.5586351E0,8.667633E-1,-3.799488E-1,7.0926994E-1,-6.130914E-1,-1.4441389E-2,-1.0878385E-1,-4.6562892E-1,-9.310151E-1,2.9710936E-3,-1.0874417E0,-5.1538813E-1,-5.5923264E-2,1.1866254E-2,-8.314386E-4,-9.862687E-1,-4.932111E-1,3.2695706E-3,-1.0815644E-2,3.6907857E-3,-4.9552047E-3,2.6167566E-3,1.2020386E-2,7.7484474E-3,-4.461928E-3,9.551901E-3,-5.9556845E-3,1.2085466E-2,7.888493E-3,1.3098248E-2,5.328311E-3,1.4441567E-2,2.6182807E-3,1.6103078E-2,4.303903E-3,-4.0021534E-3,3.033804E-3,1.3327795E-2,3.1150815E-3,-1.2716861E-2,-1.1035479E-3,6.9583114E-3,1.5367957E-2,1.0518122E-2,-3.6663413E-3,1.3320264E-2,3.7242323E-3,2.2904342E-3,1.5561743E-2,5.993371E-3,-1.06891515E-2,1.15593495E-2,2.5971266E-3,1.5928484E-2,2.49648E-3,3.472483E-3,1.2467211E-2,-5.157399E-3,4.896959E-3,9.4033005E-3,-3.8075335E-3,6.854624E-3,-6.843014E-3,1.1495439E-3,-2.8874492E-3,-7.4417484E-3,-1.3319328E-5,-1.0324161E-2,-5.10285E-3,-1.1935712E-2,-2.6600068E-3,-2.9282435E-3,-8.500041E-3,-6.471298E-3,3.1791788E-3,-1.1441595E-2,-6.2084324E-3,-8.898587E-5,-7.1745226E-3],"categories":[],"categories_nodes":[],"categories_segments":[],"categories_sizes":[],"default_left":[0,0,0,0,0,0,0,0,0,0,0,0,0,0,0,0,0,0,0,0,0,0,0,0,0,0,0,0,0,0,0,0,0,0,0,0,0,0,0,0,0,0,0,0,0,0,0,0,0,0,0,0,0,0,0,0,0,0,0,0,0,0,0,0,0,0,0,0,0,0,0,0,0,0,0,0,0,0,0,0,0,0,0,0,0,0,0,0,0,0,0,0,0,0,0,0,0,0,0,0,0,0,0,0,0,0,0,0,0,0,0,0,0,0,0,0,0,0,0,0,0,0,0,0,0,0,0,0,0,0,0,0,0,0,0,0,0,0,0,0,0,0,0,0,0,0,0,0,0],"id":8,"left_children":[1,3,5,7,9,11,13,15,17,19,21,23,25,-1,-1,27,29,31,33,35,37,39,41,43,45,47,49,51,53,55,-1,57,59,61,-1,-1,63,65,67,69,71,73,-1,75,77,79,81,83,85,-1,87,89,91,93,95,97,-1,99,101,103,105,107,109,111,113,115,117,119,121,-1,123,125,127,129,131,-1,133,135,137,-1,139,141,143,-1,-1,145,147,-1,-1,-1,-1,-1,-1,-1,-1,-1,-1,-1,-1,-1,-1,-1,-1,-1,-1,-1,-1,-1,-1,-1,-1,-1,-1,-1,-1,-1,-1,-1,-1,-1,-1,-1,-1,-1,-1,-1,-1,-1,-1,-1,-1,-1,-1,-1,-1,-1,-1,-1,-1,-1,-1,-1,-1,-1,-1,-1,-1,-1,-1],"loss_changes":[3.731166E2,1.5836386E2,2.2904236E1,9.7276436E1,1.3432791E2,1.0148071E1,1.1164303E0,5.2210064E1,6.68013E1,3.0858673E1,4.5321392E1,3.113327E0,6.980118E0,0E0,0E0,3.877972E1,3.191208E0,5.8323593E1,1.5862815E1,8.738434E0,1.1123245E1,5.7576134E1,2.6063297E1,1.0429039E0,5.19088E0,7.8902664E0,3.8587952E-1,7.6830235E0,2.3222038E1,1.5185757E0,0E0,4.117859E0,9.78606E0,1.2091049E1,0E0,0E0,9.074867E0,9.7888565E0,1.2485656E1,6.725662E0,6.6955624E0,2.1486223E1,0E0,4.0295696E0,1.6828079E0,2.9383717E0,2.0903234E0,1.690147E0,2.206894E0,0E0,2.1185699E0,2.5627298E0,4.9155426E-1,4.322724E1,1.0323677E1,5.668602E-1,0E0,7.6648254E0,3.9890442E0,5.871954E-1,9.57556E0,1.2643118E0,1.2278109E1,6.025467E-1,7.773061E0,9.165497E-1,6.1534867E0,5.293558E0,3.603487E-1,0E0,1.4718933E0,5.5262804E-1,4.164057E0,4.0016503E0,8.454063E0,0E0,1.9316587E-1,2.0533512E0,8.377476E-1,0E0,1.5412807E0,3.2252426E0,3.2785642E0,0E0,0E0,2.6615715E0,1.6896698E0,0E0,0E0,0E0,0E0,0E0,0E0,0E0,0E0,0E0,0E0,0E0,0E0,0E0,0E0,0E0,0E0,0E0,0E0,0E0,0E0,0E0,0E0,0E0,0E0,0E0,0E0,0E0,0E0,0E0,0E0,0E0,0E0,0E0,0E0,0E0,0E0,0E0,0E0,0E0,0E0,0E0,0E0,0E0,0E0,0E0,0E0,0E0,0E0,0E0,0E0,0E0,0E0,0E0,0E0,0E0,0E0,0E0,0E0,0E0,0E0,0E0,0E0],"parents":[2147483647,0,0,1,1,2,2,3,3,4,4,5,5,6,6,7,7,8,8,9,9,10,10,11,11,12,12,15,15,16,16,17,17,18,18,19,19,20,20,21,21,22,22,23,23,24,24,25,25,26,26,27,27,28,28,29,29,31,31,32,32,33,33,36,36,37,37,38,38,39,39,40,40,41,41,43,43,44,44,45,45,46,46,47,47,48,48,50,50,51,51,52,52,53,53,54,54,55,55,57,57,58,58,59,59,60,60,61,61,62,62,63,63,64,64,65,65,66,66,67,67,68,68,70,70,71,71,72,72,73,73,74,74,76,76,77,77,78,78,80,80,81,81,82,82,85,85,86,86],"right_children":[2,4,6,8,10,12,14,16,18,20,22,24,26,-1,-1,28,30,32,34,36,38,40,42,44,46,48,50,52,54,56,-1,58,60,62,-1,-1,64,66,68,70,72,74,-1,76,78,80,82,84,86,-1,88,90,92,94,96,98,-1,100,102,104,106,108,110,112,114,116,118,120,122,-1,124,126,128,130,132,-1,134,136,138,-1,140,142,144,-1,-1,146,148,-1,-1,-1,-1,-1,-1,-1,-1,-1,-1,-1,-1,-1,-1,-1,-1,-1,-1,-1,-1,-1,-1,-1,-1,-1,-1,-1,-1,-1,-1,-1,-1,-1,-1,-1,-1,-1,-1,-1,-1,-1,-1,-1,-1,-1,-1,-1,-1,-1,-1,-1,-1,-1,-1,-1,-1,-1,-1,-1,-1,-1,-1],"split_conditions":[1E0,1.4E1,6.123234E-17,-2.4492937E-16,1E0,1E0,1E0,4E0,1E0,1E0,1E0,0E0,5E-1,1.1996109E-2,2.19495E-3,1E0,2E0,5E-1,1E0,1E0,8.660254E-1,1E0,3.72E2,-7.247928E-1,1E0,1E0,4E0,-5E-1,0E0,1E0,-2.6566333E-3,8.660254E-1,1.2246469E-16,5E-1,1.4426884E-2,1.685254E-2,5E-1,5E-1,-2.4492937E-16,8.3E1,-5E-1,1.3E2,1.5090781E-2,1E0,1.0116832E-1,1E0,1E0,5E-1,2E0,-1.2529705E-2,0E0,1E0,-9.680771E-1,-5E-1,-8.660254E-1,-1.0116832E-1,4.7736854E-4,5E-1,2E0,4E0,8.660254E-1,2E0,1E0,1E0,1.2246469E-16,1E0,1E0,1.02E2,9.377521E-1,-3.8120206E-3,1.5E0,2E0,1E0,3E0,-5E-1,-1.4441389E-2,-8.4864426E-1,-2.9936314E-1,2E0,2.9710936E-3,1E0,2.0129852E-1,-4.8530197E-1,1.1866254E-2,-8.314386E-4,7.907757E-1,-5.712682E-1,3.2695706E-3,-1.0815644E-2,3.6907857E-3,-4.9552047E-3,2.6167566E-3,1.2020386E-2,7.7484474E-3,-4.461928E-3,9.551901E-3,-5.9556845E-3,1.2085466E-2,7.888493E-3,1.3098248E-2,5.328311E-3,1.4441567E-2,2.6182807E-3,1.6103078E-2,4.303903E-3,-4.0021534E-3,3.033804E-3,1.3327795E-2,3.1150815E-3,-1.2716861E-2,-1.1035479E-3,6.9583114E-3,1.5367957E-2,1.0518122E-2,-3.6663413E-3,1.3320264E-2,3.7242323E-3,2.2904342E-3,1.5561743E-2,5.993371E-3,-1.06891515E-2,1.15593495E-2,2.5971266E-3,1.5928484E-2,2.49648E-3,3.472483E-3,1.2467211E-2,-5.157399E-3,4.896959E-3,9.4033005E-3,-3.8075335E-3,6.854624E-3,-6.843014E-3,1.1495439E-3,-2.8874492E-3,-7.4417484E-3,-1.3319328E-5,-1.0324161E-2,-5.10285E-3,-1.1935712E-2,-2.6600068E-3,-2.9282435E-3,-8.500041E-3,-6.471298E-3,3.1791788E-3,-1.1441595E-2,-6.2084324E-3,-8.898587E-5,-7.1745226E-3],"split_indices":[21,35,31,30,1,17,18,27,1,22,22,33,30,0,0,27,33,31,30,23,31,23,35,28,1,27,27,31,33,4,0,30,30,30,0,0,31,30,28,35,30,35,0,5,28,27,5,33,26,0,33,4,28,30,30,28,0,30,33,27,30,26,19,27,30,14,30,35,28,0,33,27,16,27,30,0,28,28,26,0,4,28,28,0,0,28,28,0,0,0,0,0,0,0,0,0,0,0,0,0,0,0,0,0,0,0,0,0,0,0,0,0,0,0,0,0,0,0,0,0,0,0,0,0,0,0,0,0,0,0,0,0,0,0,0,0,0,0,0,0,0,0,0,0,0,0,0,0,0],"split_type":[0,0,0,0,0,0,0,0,0,0,0,0,0,0,0,0,0,0,0,0,0,0,0,0,0,0,0,0,0,0,0,0,0,0,0,0,0,0,0,0,0,0,0,0,0,0,0,0,0,0,0,0,0,0,0,0,0,0,0,0,0,0,0,0,0,0,0,0,0,0,0,0,0,0,0,0,0,0,0,0,0,0,0,0,0,0,0,0,0,0,0,0,0,0,0,0,0,0,0,0,0,0,0,0,0,0,0,0,0,0,0,0,0,0,0,0,0,0,0,0,0,0,0,0,0,0,0,0,0,0,0,0,0,0,0,0,0,0,0,0,0,0,0,0,0,0,0,0,0],"sum_hessian":[1.6713331E3,1.3237787E3,3.4755435E2,9.1451904E2,4.0925967E2,3.4156372E2,5.9906354E0,5.2805554E2,3.864635E2,2.2558469E2,1.83675E2,1.4036525E2,2.0119847E2,3.7467256E0,2.2439098E0,4.898379E2,3.8217648E1,2.1388004E2,1.7258347E2,1.5144705E2,7.413763E1,7.836041E1,1.0531459E2,6.0247444E1,8.0117805E1,7.5042046E1,1.2615642E2,3.7389328E1,4.5244855E2,3.6223164E1,1.9944847E0,1.2488508E2,8.899496E1,1.6683624E2,5.7472224E0,1.1548623E2,3.5960823E1,5.9181015E1,1.4956613E1,4.224456E1,3.6115856E1,9.881907E1,6.4955235E0,1.4377379E1,4.5870064E1,2.1565237E1,5.8552567E1,2.983568E0,7.205848E1,1.2343421E2,2.7222073E0,2.2162148E1,1.52271805E1,1.3624208E2,3.1620648E2,3.422605E1,1.9971138E0,5.5197433E1,6.9687645E1,4.9946346E0,8.400032E1,7.2462673E0,1.5958998E2,2.223656E1,1.3724261E1,3.3228413E1,2.5952604E1,9.215514E0,5.741098E0,1.4994285E0,4.074513E1,3.9928117E0,3.2123043E1,1.3466787E1,8.535228E1,1.1404285E1,2.9730947E0,1.4884746E1,3.0985317E1,1.2439581E0,2.032128E1,4.564945E1,1.2903117E1,1.2445971E0,1.7389709E0,5.744144E1,1.4617038E1,1.2386419E0,1.4835653E0,1.8924791E1,3.237355E0,1.2477777E0,1.3979403E1,4.039018E1,9.5851906E1,3.4935923E0,3.127129E2,1.2243215E1,2.1982836E1,2.9742922E1,2.5454512E1,6.619029E1,3.4973545E0,3.4957004E0,1.4989345E0,2.8404593E1,5.559573E1,4.7472787E0,2.4989882E0,8.71161E0,1.5087837E2,3.4985054E0,1.8738056E1,6.991888E0,6.732373E0,3.1230536E1,1.9978758E0,2.2703732E1,3.2488723E0,1.7467984E0,7.468716E0,4.492558E0,1.24854E0,3.9495956E1,1.2491734E0,2.495135E0,1.4976765E0,2.8136593E1,3.9864502E0,1.1224731E1,2.2420561E0,3.9887812E0,8.13635E1,1.4863737E0,1.486721E0,8.926605E0,5.9581413E0,2.379626E1,7.189056E0,1.7594997E1,2.7262816E0,2.8541018E1,1.710843E1,4.7152357E0,8.187881E0,3.8622593E1,1.8818848E1,4.9549975E0,9.662041E0],"tree_param":{"num_deleted":"0","num_feature":"36","num_nodes":"149","size_leaf_vector":"1"}},{"base_weights":[8.261406E-3,-1.5637125E-1,1.5981386E0,5.5592995E-2,-8.826372E-1,1.6194227E0,6.259998E-1,3.1236455E-1,-2.946487E-1,-9.303489E-1,1.1066594E0,1.6288718E0,3.977819E-3,-1.2259757E-3,1.2826787E-2,2.379493E-2,7.6293194E-1,1.2241007E0,-3.330513E-1,-5.342654E-1,-9.710653E-1,6.732988E-2,1.5276059E-2,1.0364599E0,1.6611495E0,-1.4636855E-1,1.0592234E0,1.1547581E0,2.0605734E-1,1.3113092E-2,2.4367361E-3,-3.6624765E-1,1.4694237E0,8.401314E-2,-7.717145E-1,-9.986071E-1,-4.1894716E-1,2.7405897E-3,-1.6936719E-3,-2.1856772E-3,1.2297053E0,1.6716404E-2,4.060912E-3,-3.586518E-1,4.8549205E-1,1.4040906E0,-4.274141E-2,1.2161459E0,-5.124833E-2,1.4538308E0,-4.0683824E-1,-3.8686168E-1,1.4774374E-2,1.6245442E-2,4.1625407E-3,8.325795E-1,-6.4851314E-1,6.5808836E-3,-9.1091126E-1,-8.4145564E-1,-1.0972929E0,-8.2844996E-1,5.92629E-1,1.417827E-2,4.461324E-3,-4.3737506E-3,7.942917E-3,1.2074453E-2,-9.903703E-4,1.4753993E-2,3.773874E-3,8.159355E-3,-7.510692E-3,1.2552261E-2,3.1635456E-3,-6.529144E-3,7.877746E-3,1.8183857E-2,3.3278265E-3,1.1820943E-2,-4.778629E-3,-5.0721583E-3,-1.0464188E-3,1.228572E-2,9.1850024E-4,-1.1265909E-2,2.8248685E-3,-1.3408601E-2,-3.7451594E-3,-9.424916E-3,-5.004862E-3,-9.860108E-3,-1.3702479E-2,-1.6900426E-3,-1.1074566E-2,8.573865E-3,-1.4187599E-3],"categories":[],"categories_nodes":[],"categories_segments":[],"categories_sizes":[],"default_left":[0,0,0,0,0,0,0,0,0,0,0,0,0,0,0,0,0,0,0,0,0,0,0,0,0,0,0,0,0,0,0,0,0,0,0,0,0,0,0,0,0,0,0,0,0,0,0,0,0,0,0,0,0,0,0,0,0,0,0,0,0,0,0,0,0,0,0,0,0,0,0,0,0,0,0,0,0,0,0,0,0,0,0,0,0,0,0,0,0,0,0,0,0,0,0,0,0],"id":9,"left_children":[1,3,5,7,9,11,13,15,17,19,21,23,-1,-1,-1,25,27,29,31,33,35,37,-1,39,41,43,45,47,49,-1,-1,51,53,55,57,59,61,-1,-1,-1,63,-1,-1,65,67,69,71,73,75,77,79,81,-1,-1,-1,83,85,-1,87,89,91,93,95,-1,-1,-1,-1,-1,-1,-1,-1,-1,-1,-1,-1,-1,-1,-1,-1,-1,-1,-1,-1,-1,-1,-1,-1,-1,-1,-1,-1,-1,-1,-1,-1,-1,-1],"loss_changes":[4.3850986E2,2.3376E2,2.2389526E0,1.05863686E2,3.3588715E1,1.1205444E0,2.6143126E0,8.8278656E1,2.9454521E1,4.8926697E0,3.6122532E0,1.1791687E0,0E0,0E0,0E0,7.327526E1,5.7606094E1,7.489166E-1,2.9649979E1,4.983198E0,4.189911E0,2.1738307E-1,0E0,2.8147812E0,1.1935425E0,4.8100765E1,2.2366745E1,1.1566635E1,8.525482E1,0E0,0E0,1.8758553E1,7.937546E-1,6.1319165E0,5.4364824E0,3.5420532E0,7.169306E0,0E0,0E0,0E0,7.306738E-1,0E0,0E0,2.467443E1,3.8217667E1,2.7184143E0,9.71278E0,4.803894E0,4.7982697E0,1.4387375E1,9.031332E0,1.6048096E1,0E0,0E0,0E0,1.495038E0,2.862528E0,0E0,4.702284E0,3.5022507E0,3.9212494E0,2.0010462E0,1.1384414E0,0E0,0E0,0E0,0E0,0E0,0E0,0E0,0E0,0E0,0E0,0E0,0E0,0E0,0E0,0E0,0E0,0E0,0E0,0E0,0E0,0E0,0E0,0E0,0E0,0E0,0E0,0E0,0E0,0E0,0E0,0E0,0E0,0E0,0E0],"parents":[2147483647,0,0,1,1,2,2,3,3,4,4,5,5,6,6,7,7,8,8,9,9,10,10,11,11,15,15,16,16,17,17,18,18,19,19,20,20,21,21,23,23,24,24,25,25,26,26,27,27,28,28,31,31,32,32,33,33,34,34,35,35,36,36,40,40,43,43,44,44,45,45,46,46,47,47,48,48,49,49,50,50,51,51,55,55,56,56,58,58,59,59,60,60,61,61,62,62],"right_children":[2,4,6,8,10,12,14,16,18,20,22,24,-1,-1,-1,26,28,30,32,34,36,38,-1,40,42,44,46,48,50,-1,-1,52,54,56,58,60,62,-1,-1,-1,64,-1,-1,66,68,70,72,74,76,78,80,82,-1,-1,-1,84,86,-1,88,90,92,94,96,-1,-1,-1,-1,-1,-1,-1,-1,-1,-1,-1,-1,-1,-1,-1,-1,-1,-1,-1,-1,-1,-1,-1,-1,-1,-1,-1,-1,-1,-1,-1,-1,-1,-1],"split_conditions":[1E0,1E0,1E0,1E0,6.123234E-17,4.95E2,1.3E2,-2.4492937E-16,-8.660254E-1,1E0,-7.587581E-1,8.3E1,3.977819E-3,-1.2259757E-3,1.2826787E-2,2.2E1,5E-1,3E0,1E0,5E-1,9.795299E-1,2E0,1.5276059E-2,-2.6320726E-1,1.3E1,-1.8369701E-16,8.660254E-1,3E2,3.4730524E-1,1.3113092E-2,2.4367361E-3,4.37E2,1.4560801E0,6.8896693E-1,-9.5413923E-1,5E-1,1E0,2.7405897E-3,-1.6936719E-3,-2.1856772E-3,8E1,1.6716404E-2,4.060912E-3,4E0,-5E-1,9.795299E-1,9.8E1,2E0,3.69E2,9.377521E-1,1.2246469E-16,1E0,1.4774374E-2,1.6245442E-2,4.1625407E-3,-1.3066584E-1,1E0,6.5808836E-3,3.4730524E-1,2E0,5.712682E-1,2E0,1E0,1.417827E-2,4.461324E-3,-4.3737506E-3,7.942917E-3,1.2074453E-2,-9.903703E-4,1.4753993E-2,3.773874E-3,8.159355E-3,-7.510692E-3,1.2552261E-2,3.1635456E-3,-6.529144E-3,7.877746E-3,1.8183857E-2,3.3278265E-3,1.1820943E-2,-4.778629E-3,-5.0721583E-3,-1.0464188E-3,1.228572E-2,9.1850024E-4,-1.1265909E-2,2.8248685E-3,-1.3408601E-2,-3.7451594E-3,-9.424916E-3,-5.004862E-3,-9.860108E-3,-1.3702479E-2,-1.6900426E-3,-1.1074566E-2,8.573865E-3,-1.4187599E-3],"split_indices":[24,21,7,1,31,35,35,30,31,27,29,35,0,0,0,35,31,27,30,30,29,26,0,32,34,31,31,35,29,0,0,35,32,29,29,30,18,0,0,0,35,0,0,27,30,29,35,33,35,28,30,18,0,0,0,32,5,0,29,26,28,27,2,0,0,0,0,0,0,0,0,0,0,0,0,0,0,0,0,0,0,0,0,0,0,0,0,0,0,0,0,0,0,0,0,0,0],"split_type":[0,0,0,0,0,0,0,0,0,0,0,0,0,0,0,0,0,0,0,0,0,0,0,0,0,0,0,0,0,0,0,0,0,0,0,0,0,0,0,0,0,0,0,0,0,0,0,0,0,0,0,0,0,0,0,0,0,0,0,0,0,0,0,0,0,0,0,0,0,0,0,0,0,0,0,0,0,0,0,0,0,0,0,0,0,0,0,0,0,0,0,0,0,0,0,0,0],"sum_hessian":[1.6733733E3,1.517171E3,1.5620226E2,1.1751278E3,3.4204327E2,1.5220404E2,3.9982069E0,6.7810156E2,4.9702618E2,3.3455167E2,7.491633E0,1.5070503E2,1.499016E0,2.2483974E0,1.7498096E0,4.1400284E2,2.6409872E2,1.1496241E1,4.8552997E2,3.250164E1,3.0205002E2,2.4939482E0,4.9976845E0,9.497769E0,1.4120726E2,3.563058E2,5.7697052E1,1.543922E2,1.0970652E2,1.0247264E1,1.2489772E0,4.77532E2,7.997945E0,9.1979265E0,2.3303715E1,2.8692822E2,1.5121788E1,1.2469908E0,1.2469574E0,1.2498181E0,8.247951E0,1.3970753E2,1.4997287E0,2.6702652E2,8.927926E1,4.373555E1,1.3961503E1,1.4690602E2,7.4861755E0,3.5684856E1,7.402167E1,4.7303326E2,4.498761E0,6.4982886E0,1.499656E0,4.4816036E0,4.7163234E0,1.7367179E0,2.1566996E1,1.14353516E2,1.725747E2,1.0893108E1,4.22868E0,5.9984045E0,2.2495463E0,2.5054022E2,1.6486307E1,3.9467358E1,4.98119E1,4.0486572E1,3.2489774E0,6.2422996E0,7.719204E0,1.4041252E2,6.493496E0,4.4889503E0,2.997225E0,2.6458685E1,9.2261715E0,2.4978325E0,7.1523834E1,3.310556E2,1.4197766E2,2.49121E0,1.9903934E0,2.9773417E0,1.738982E0,1.1138857E1,1.0428139E1,8.685309E1,2.750043E1,1.2587043E2,4.6704277E1,3.7159705E0,7.1771374E0,2.985307E0,1.2433732E0],"tree_param":{"num_deleted":"0","num_feature":"36","num_nodes":"97","size_leaf_vector":"1"}},{"base_weights":[-3.567164E-3,-1.713253E-1,1.5918032E0,-7.245296E-1,6.393504E-2,1.6098042E0,4.197961E-1,9.2715317E-1,-8.2478255E-1,3.0087295E-1,-2.4188991E-1,1.6315587E0,6.7562246E-1,8.054554E-3,-1.955364E-3,4.5205444E-1,1.5685604E0,-8.8988966E-1,2.3088984E-1,-6.8102084E-4,7.724443E-1,-2.7158028E-1,1.3284543E0,1.6418198E0,2.2104545E-3,1.1472462E-2,-1.7039909E-3,6.9814247E-1,-5.7222044E-1,1.7094417E-2,4.196697E-3,-1.0872165E0,-7.3108476E-1,1.0045018E0,-3.7855875E-1,-1.7166346E-1,1.0151976E0,1.1708374E0,5.167144E-1,-2.9219875E-1,1.4653045E-2,1.611469E-2,-2.0553088E-3,1.0918089E0,1.6742969E-2,-1.7250705E-1,9.567059E-1,-1.0298129E-2,6.8607053E-4,-8.8819575E-1,-1.2007545E0,-7.832042E-1,9.906742E-2,1.2725883E0,-7.0140784E-4,7.874358E-1,-8.379283E-1,1.3035035E0,-2.3988636E-1,1.3486093E0,5.5054873E-1,1.2530254E0,1.331745E-1,1.2700281E0,3.3724234E-1,1.2668861E-2,-3.0899316E-1,1.4140892E-2,-1.3650315E-3,-1.0254282E-2,5.8646374E-3,1.15052285E-2,7.129165E-4,-1.1000095E-2,-5.9616514E-3,-1.24321645E-2,-5.7463057E-4,-7.9531185E-3,6.9741798E-3,-6.04187E-3,1.0873464E-2,4.2099133E-3,1.3830616E-2,-1.9285511E-3,1.1926464E-2,-1.1223591E-2,2.060418E-3,1.42219E-2,4.732187E-3,1.0040018E-3,-4.933786E-3,4.243142E-3,1.4262908E-2,1.1964335E-2,1.9369434E-3,1.3272457E-2,-2.5810008E-3,-5.1605213E-3,9.614412E-3,2.6753126E-4,1.3413767E-2,1.2164275E-2,1.6303286E-3,-1.2987474E-3,-4.3985285E-3],"categories":[],"categories_nodes":[],"categories_segments":[],"categories_sizes":[],"default_left":[0,0,0,0,0,0,0,0,0,0,0,0,0,0,0,0,0,0,0,0,0,0,0,0,0,0,0,0,0,0,0,0,0,0,0,0,0,0,0,0,0,0,0,0,0,0,0,0,0,0,0,0,0,0,0,0,0,0,0,0,0,0,0,0,0,0,0,0,0,0,0,0,0,0,0,0,0,0,0,0,0,0,0,0,0,0,0,0,0,0,0,0,0,0,0,0,0,0,0,0,0,0,0,0,0],"id":10,"left_children":[1,3,5,7,9,11,13,15,17,19,21,23,25,-1,-1,27,29,31,33,35,37,39,41,43,-1,-1,-1,45,47,-1,-1,49,51,53,55,57,59,61,63,65,-1,-1,-1,67,-1,69,71,-1,-1,73,75,77,79,81,-1,83,85,87,89,91,93,95,97,99,101,-1,103,-1,-1,-1,-1,-1,-1,-1,-1,-1,-1,-1,-1,-1,-1,-1,-1,-1,-1,-1,-1,-1,-1,-1,-1,-1,-1,-1,-1,-1,-1,-1,-1,-1,-1,-1,-1,-1,-1],"loss_changes":[4.4556567E2,1.9609909E2,2.6661072E0,7.520482E1,7.672538E1,2.0610046E0,1.0471447E0,7.273735E0,2.9372437E1,8.4824646E1,2.191714E1,1.8284607E0,2.2898772E0,0E0,0E0,4.546915E0,1.0213013E0,1.1737061E1,1.2377193E1,6.354499E1,2.3098724E1,1.6708042E1,4.129511E0,8.542175E-1,0E0,0E0,0E0,3.2529945E0,1.1664656E0,0E0,0E0,2.9167023E0,9.797035E0,3.398427E0,8.672264E0,3.1826185E1,7.422333E0,7.523056E0,1.8971634E1,1.217672E1,0E0,0E0,0E0,4.645095E0,0E0,3.1830535E0,1.7591524E0,0E0,0E0,3.5426483E0,5.239609E0,4.3458557E0,1.0496974E1,2.8752136E-1,0E0,2.1141891E0,3.5616326E0,7.062931E-1,2.5939053E1,1.5485001E0,5.2326937E0,9.700043E0,4.6563797E0,2.3810768E0,1.7759209E1,0E0,1.0399239E1,0E0,0E0,0E0,0E0,0E0,0E0,0E0,0E0,0E0,0E0,0E0,0E0,0E0,0E0,0E0,0E0,0E0,0E0,0E0,0E0,0E0,0E0,0E0,0E0,0E0,0E0,0E0,0E0,0E0,0E0,0E0,0E0,0E0,0E0,0E0,0E0,0E0,0E0],"parents":[2147483647,0,0,1,1,2,2,3,3,4,4,5,5,6,6,7,7,8,8,9,9,10,10,11,11,12,12,15,15,16,16,17,17,18,18,19,19,20,20,21,21,22,22,23,23,27,27,28,28,31,31,32,32,33,33,34,34,35,35,36,36,37,37,38,38,39,39,43,43,45,45,46,46,49,49,50,50,51,51,52,52,53,53,55,55,56,56,57,57,58,58,59,59,60,60,61,61,62,62,63,63,64,64,66,66],"right_children":[2,4,6,8,10,12,14,16,18,20,22,24,26,-1,-1,28,30,32,34,36,38,40,42,44,-1,-1,-1,46,48,-1,-1,50,52,54,56,58,60,62,64,66,-1,-1,-1,68,-1,70,72,-1,-1,74,76,78,80,82,-1,84,86,88,90,92,94,96,98,100,102,-1,104,-1,-1,-1,-1,-1,-1,-1,-1,-1,-1,-1,-1,-1,-1,-1,-1,-1,-1,-1,-1,-1,-1,-1,-1,-1,-1,-1,-1,-1,-1,-1,-1,-1,-1,-1,-1,-1,-1],"split_conditions":[1E0,1E0,1E0,-5E-1,1E0,1.5E0,1E0,6.620819E-1,8.660254E-1,-2.4492937E-16,1E0,4.95E2,1.2628946E0,8.054554E-3,-1.955364E-3,1E0,5E-1,-1.4754611E-1,2.9936314E-1,1E0,3.4730524E-1,4.37E2,9E1,8.3E1,2.2104545E-3,1.1472462E-2,-1.7039909E-3,1E0,-2.863395E-1,1.7094417E-2,4.196697E-3,5E-1,1E0,1E0,1.5142778E-1,-8.660254E-1,-5E-1,2.97E2,5E-1,-8.660254E-1,1.4653045E-2,1.611469E-2,-2.0553088E-3,1E0,1.6742969E-2,1E0,2.5883088E-1,-1.0298129E-2,6.8607053E-4,-3.0196938E-1,9.795299E-1,3.44E2,1E0,-2.1006565E-1,-7.0140784E-4,5.712682E-1,1.027196E0,1E0,1E0,-3.344795E-1,9.8E1,1E0,3.72E2,-3.0447015E-1,-6.513725E-1,1.2668861E-2,1E0,1.4140892E-2,-1.3650315E-3,-1.0254282E-2,5.8646374E-3,1.15052285E-2,7.129165E-4,-1.1000095E-2,-5.9616514E-3,-1.24321645E-2,-5.7463057E-4,-7.9531185E-3,6.9741798E-3,-6.04187E-3,1.0873464E-2,4.2099133E-3,1.3830616E-2,-1.9285511E-3,1.1926464E-2,-1.1223591E-2,2.060418E-3,1.42219E-2,4.732187E-3,1.0040018E-3,-4.933786E-3,4.243142E-3,1.4262908E-2,1.1964335E-2,1.9369434E-3,1.3272457E-2,-2.5810008E-3,-5.1605213E-3,9.614412E-3,2.6753126E-4,1.3413767E-2,1.2164275E-2,1.6303286E-3,-1.2987474E-3,-4.3985285E-3],"split_indices":[24,19,7,30,1,33,17,32,30,30,30,35,32,0,0,13,33,32,28,3,29,35,35,35,0,0,0,20,32,0,0,30,9,1,29,30,30,35,30,30,0,0,0,1,0,17,32,0,0,32,29,35,20,32,0,28,32,16,17,32,35,2,35,32,28,0,17,0,0,0,0,0,0,0,0,0,0,0,0,0,0,0,0,0,0,0,0,0,0,0,0,0,0,0,0,0,0,0,0,0,0,0,0,0,0],"split_type":[0,0,0,0,0,0,0,0,0,0,0,0,0,0,0,0,0,0,0,0,0,0,0,0,0,0,0,0,0,0,0,0,0,0,0,0,0,0,0,0,0,0,0,0,0,0,0,0,0,0,0,0,0,0,0,0,0,0,0,0,0,0,0,0,0,0,0,0,0,0,0,0,0,0,0,0,0,0,0,0,0,0,0,0,0,0,0,0,0,0,0,0,0,0,0,0,0,0,0,0,0,0,0,0,0],"sum_hessian":[1.6627986E3,1.5053943E3,1.5740425E2,4.4855566E2,1.0568386E3,1.5465535E2,2.7489092E0,2.5196188E1,4.2335947E2,5.95495E2,4.6134363E2,1.5040631E2,4.249041E0,1.4998825E0,1.2490267E0,1.5453996E1,9.742192E0,3.9891406E2,2.444543E1,3.6383398E2,2.3166101E2,4.535946E2,7.7490206E0,1.4915723E2,1.24908E0,2.4995768E0,1.7494644E0,1.2717052E1,2.736943E0,8.2434435E0,1.4987487E0,1.7527528E2,2.2363876E2,1.0486294E1,1.3959136E1,3.1213037E2,5.1703617E1,8.916908E1,1.4249194E2,4.490952E2,4.4994135E0,6.4993935E0,1.2496268E0,1.0246548E1,1.3891068E2,2.988118E0,9.728935E0,1.2426238E0,1.4943192E0,6.687427E1,1.0840101E2,2.1048071E2,1.3158057E1,8.245203E0,2.2410915E0,3.743368E0,1.0215768E1,1.2996818E1,2.9913358E2,2.8995378E1,2.2708237E1,8.243248E1,6.736605E0,2.6246935E1,1.16245E2,3.992819E0,4.451024E2,7.9970603E0,2.2494874E0,1.2416693E0,1.7464485E0,7.7360897E0,1.9928453E0,3.7157017E1,2.9717253E1,1.04434875E2,3.9661317E0,2.0923259E2,1.2481221E0,7.914666E0,5.2433906E0,1.4992045E0,6.745998E0,1.2480736E0,2.4952943E0,7.969407E0,2.2463613E0,1.074759E1,2.249228E0,1.2796201E2,1.7117155E2,2.7489703E0,2.6246407E1,7.2441125E0,1.5464125E1,7.868927E1,3.7432086E0,3.9877813E0,2.748824E0,1.4991255E0,2.474781E1,1.8235104E1,9.8009895E1,1.8874461E2,2.563578E2],"tree_param":{"num_deleted":"0","num_feature":"36","num_nodes":"105","size_leaf_vector":"1"}},{"base_weights":[-3.5717483E-3,-1.7095742E-1,1.5671741E0,3.5273146E-2,-8.54563E-1,1.5943847E0,8.0355334E-1,-4.0501412E-2,9.884395E-1,-8.994364E-1,1.158791E0,1.0432527E0,1.6246237E-2,1.8136498E-2,1.1926059E0,1.2198477E0,-9.434527E-2,1.1210254E0,6.947681E-1,-6.7629397E-1,-1.0430639E0,2.1674687E-3,1.4889842E-2,1.2350154E0,-2.2976543E-3,6.75776E-3,-6.4762756E-3,1.4544774E-2,2.2592582E-3,1.2771845E0,1.5181919E-4,-1.364162E-1,1.4484129E0,8.73062E-1,1.3710837E0,9.123979E-1,-1.5852126E-1,-7.427519E-1,2.3950148E-1,-8.3791447E-1,-1.1512293E0,1.4354555E-2,3.2209617E-3,1.3237072E0,1.7207989E-4,-2.9112807E-1,2.1345952E-1,1.566284E0,-1.713785E-3,9.698256E-1,-4.843115E-3,1.629561E-2,9.229774E-1,1.185321E0,3.2445577E-1,-4.6538427E-1,3.8015454E-3,-2.0396546E-1,-7.9664564E-1,-4.5753378E-1,5.32764E-1,-9.585426E-1,-1.8632638E-1,-1.2366459E0,-8.089395E-1,5.2511226E-3,1.4220542E-2,3.3676797E-3,-3.784844E-3,4.8573143E-3,-1.324922E-3,1.6265385E-2,2.2077004E-3,1.2162851E-2,4.939208E-3,-3.162654E-3,1.2022184E-2,1.3154849E-2,-1.674733E-3,9.322936E-3,-5.390129E-3,2.7000438E-3,-8.050445E-3,-7.870175E-3,2.266182E-3,-8.272389E-3,1.452545E-3,-1.2808439E-3,-5.827046E-3,7.921552E-3,-3.0339553E-3,-1.0072462E-2,-1.4635985E-3,-8.924517E-3,1.4084217E-3,-8.143921E-3,-1.2786269E-2,-1.5801747E-3,-1.0235255E-2],"categories":[],"categories_nodes":[],"categories_segments":[],"categories_sizes":[],"default_left":[0,0,0,0,0,0,0,0,0,0,0,0,0,0,0,0,0,0,0,0,0,0,0,0,0,0,0,0,0,0,0,0,0,0,0,0,0,0,0,0,0,0,0,0,0,0,0,0,0,0,0,0,0,0,0,0,0,0,0,0,0,0,0,0,0,0,0,0,0,0,0,0,0,0,0,0,0,0,0,0,0,0,0,0,0,0,0,0,0,0,0,0,0,0,0,0,0,0,0],"id":11,"left_children":[1,3,5,7,9,11,13,15,17,19,21,23,-1,25,27,29,31,33,35,37,39,-1,-1,41,-1,-1,-1,-1,-1,43,-1,45,47,49,51,53,55,57,59,61,63,-1,-1,65,-1,67,69,71,-1,73,-1,-1,75,77,79,81,-1,83,85,87,89,91,93,95,97,-1,-1,-1,-1,-1,-1,-1,-1,-1,-1,-1,-1,-1,-1,-1,-1,-1,-1,-1,-1,-1,-1,-1,-1,-1,-1,-1,-1,-1,-1,-1,-1,-1,-1],"loss_changes":[4.3501224E2,2.1082187E2,2.0295715E0,8.3072044E1,3.235324E1,8.522644E-1,2.269659E0,7.245039E1,2.519127E0,1.0177734E1,2.1634932E0,2.906578E0,0E0,1.969787E0,9.3689394E-1,3.00206E0,6.660692E1,2.3202057E0,5.525489E0,8.444244E0,3.5788422E0,0E0,0E0,1.2749767E0,0E0,0E0,0E0,0E0,0E0,2.4241486E0,0E0,5.402567E1,5.4706497E0,4.5722237E0,1.5641823E0,3.343851E0,1.2911024E0,3.5216446E0,2.276797E0,5.6661644E0,2.841156E0,0E0,0E0,2.4140396E0,0E0,3.806665E1,2.8910465E1,1.7080917E0,0E0,2.8581142E0,0E0,0E0,4.531645E0,2.948248E0,5.09144E0,1.4022747E0,0E0,3.4122264E0,3.4338226E0,6.900513E-2,1.8588793E0,2.3249931E0,3.0960016E0,7.8915405E-1,3.9073067E0,0E0,0E0,0E0,0E0,0E0,0E0,0E0,0E0,0E0,0E0,0E0,0E0,0E0,0E0,0E0,0E0,0E0,0E0,0E0,0E0,0E0,0E0,0E0,0E0,0E0,0E0,0E0,0E0,0E0,0E0,0E0,0E0,0E0,0E0],"parents":[2147483647,0,0,1,1,2,2,3,3,4,4,5,5,6,6,7,7,8,8,9,9,10,10,11,11,13,13,14,14,15,15,16,16,17,17,18,18,19,19,20,20,23,23,29,29,31,31,32,32,33,33,34,34,35,35,36,36,37,37,38,38,39,39,40,40,43,43,45,45,46,46,47,47,49,49,52,52,53,53,54,54,55,55,57,57,58,58,59,59,60,60,61,61,62,62,63,63,64,64],"right_children":[2,4,6,8,10,12,14,16,18,20,22,24,-1,26,28,30,32,34,36,38,40,-1,-1,42,-1,-1,-1,-1,-1,44,-1,46,48,50,52,54,56,58,60,62,64,-1,-1,66,-1,68,70,72,-1,74,-1,-1,76,78,80,82,-1,84,86,88,90,92,94,96,98,-1,-1,-1,-1,-1,-1,-1,-1,-1,-1,-1,-1,-1,-1,-1,-1,-1,-1,-1,-1,-1,-1,-1,-1,-1,-1,-1,-1,-1,-1,-1,-1,-1,-1],"split_conditions":[1E0,1E0,1.5E0,4E0,6.123234E-17,8.3E1,1.03E2,-8.660254E-1,5.28964E-1,1E0,-7.587581E-1,8.1E1,1.6246237E-2,1.2897781E0,1.88E2,1E0,1E0,-2.4492937E-16,6.513725E-1,9.795299E-1,-8.660254E-1,2.1674687E-3,1.4889842E-2,3.751172E-1,-2.2976543E-3,6.75776E-3,-6.4762756E-3,1.4544774E-2,2.2592582E-3,3.88E2,1.5181919E-4,4.1512972E-1,1E0,1E0,7.5398564E-1,5E-1,9.971866E-1,-9.5413923E-1,0E0,1E0,3.9949983E-1,1.4354555E-2,3.2209617E-3,-2.863395E-1,1.7207989E-4,1E0,1E0,4.038762E0,-1.713785E-3,6.123234E-17,-4.843115E-3,1.629561E-2,1.0565802E0,2E0,2.9936314E-1,1E0,3.8015454E-3,-1.7380431E-1,1E0,5.0640825E-2,2E0,1E0,-6.1210597E-1,-9.5413923E-1,6.4395124E-1,5.2511226E-3,1.4220542E-2,3.3676797E-3,-3.784844E-3,4.8573143E-3,-1.324922E-3,1.6265385E-2,2.2077004E-3,1.2162851E-2,4.939208E-3,-3.162654E-3,1.2022184E-2,1.3154849E-2,-1.674733E-3,9.322936E-3,-5.390129E-3,2.7000438E-3,-8.050445E-3,-7.870175E-3,2.266182E-3,-8.272389E-3,1.452545E-3,-1.2808439E-3,-5.827046E-3,7.921552E-3,-3.0339553E-3,-1.0072462E-2,-1.4635985E-3,-8.924517E-3,1.4084217E-3,-8.143921E-3,-1.2786269E-2,-1.5801747E-3,-1.0235255E-2],"split_indices":[24,21,33,27,31,35,35,31,29,17,29,35,0,32,35,2,30,30,28,29,31,0,0,32,0,0,0,0,0,35,0,32,23,2,32,30,32,29,33,2,32,0,0,32,0,27,1,32,0,31,0,0,32,33,28,9,0,32,0,32,26,9,29,29,32,0,0,0,0,0,0,0,0,0,0,0,0,0,0,0,0,0,0,0,0,0,0,0,0,0,0,0,0,0,0,0,0,0,0],"split_type":[0,0,0,0,0,0,0,0,0,0,0,0,0,0,0,0,0,0,0,0,0,0,0,0,0,0,0,0,0,0,0,0,0,0,0,0,0,0,0,0,0,0,0,0,0,0,0,0,0,0,0,0,0,0,0,0,0,0,0,0,0,0,0,0,0,0,0,0,0,0,0,0,0,0,0,0,0,0,0,0,0,0,0,0,0,0,0,0,0,0,0,0,0,0,0,0,0,0,0],"sum_hessian":[1.6525209E3,1.494185E3,1.5833585E2,1.1486177E3,3.4556732E2,1.518374E2,6.4984455E0,1.0649167E3,8.370095E1,3.3857446E2,6.9928446E0,9.744069E0,1.4209334E2,2.4993632E0,3.999082E0,4.274351E1,1.0221733E3,5.572508E1,2.7975872E1,1.3482162E2,2.0375284E2,2.2448096E0,4.748035E0,8.494363E0,1.2497066E0,1.2497884E0,1.2495749E0,2.749608E0,1.249474E0,4.0744072E1,1.9994384E0,9.95926E2,2.6247269E1,3.0234907E1,2.5490173E1,2.2235481E1,5.7403903E0,1.2587595E2,8.94568E0,7.3361E1,1.3039185E2,6.4957743E0,1.9985884E0,3.924445E1,1.4996228E0,6.90681E2,3.0524496E2,2.449763E1,1.7496407E0,2.8489481E1,1.7454264E0,1.449348E1,1.0996695E1,1.4492162E1,7.7433195E0,3.7437677E0,1.9966227E0,1.1881255E1,1.139947E2,2.4832547E0,6.4624248E0,6.1503754E1,1.1857245E1,1.02260414E2,2.813143E1,4.9981303E0,3.424632E1,8.400664E1,6.066744E2,1.7058592E2,1.3465906E2,2.3247692E1,1.2499355E0,1.774437E1,1.07451105E1,1.9978504E0,8.998844E0,1.32452965E1,1.2468644E0,4.4975595E0,3.2457597E0,1.2476313E0,2.4961362E0,4.6954155E0,7.1858397E0,1.1052649E2,3.4682074E0,1.2407858E0,1.2424687E0,4.972497E0,1.4899278E0,5.779767E1,3.7060869E0,3.207253E0,8.649993E0,1.1092163E1,9.116825E1,7.405147E0,2.0726284E1],"tree_param":{"num_deleted":"0","num_feature":"36","num_nodes":"99","size_leaf_vector":"1"}},{"base_weights":[-2.875712E-3,-2.3632184E-1,7.091933E-1,-7.4747854E-1,2.7054511E-2,1.2121038E0,1.1057171E-1,-9.337558E-1,4.2404157E-1,-2.8276828E-1,4.3686682E-1,1.4521892E0,7.254815E-1,1.199264E0,-9.244454E-2,-7.352252E-1,-1.0582327E0,-6.13579E-2,1.0457354E0,-3.656793E-1,1.0320994E0,8.2495433E-1,2.5993958E-3,1.6058966E0,9.459182E-1,9.218433E-1,4.5497697E-3,1.3998598E0,6.003287E-2,1.1184475E0,-2.6593235E-1,-8.1464875E-1,-5.0178595E-2,-8.724255E-1,-1.1872138E0,1.1074295E-1,-1.0914626E0,1.3441639E0,-5.9006624E-2,-5.4088354E-1,8.3655015E-2,-1.3922252E-3,1.138816E0,1.207919E0,2.3127954E-1,-5.7734936E-2,1.5222862E-2,1.623352E-2,6.6754204E-1,-7.7875066E-1,1.1348978E0,1.2369833E0,5.226084E-1,1.1509806E0,-6.709783E-1,5.0708663E-1,1.5201519E0,-1.0558537E-2,6.3659805E-1,-5.262309E-3,1.3023999E0,1.468158E-2,-3.3396214E-1,-8.696014E-1,-6.490315E-2,5.167448E-1,-5.362642E-1,-9.43336E-1,2.8363395E-2,-1.36713E0,-1.0227021E0,6.3256246E-1,-2.4350885E-1,-1.3291389E-2,-3.2118836E-3,1.5291774E0,5.150778E-1,-5.699281E-1,7.2573153E-3,-7.5053567E-1,-2.1921052E-1,-4.9079475E-1,3.1386748E-1,4.654922E-1,1.2228644E0,9.568927E-1,1.3900173E0,1.828436E-2,-2.763796E-1,1.0388747E0,-1.151562E-1,4.16653E-5,1.1078712E-2,1.2151233E-4,-1.2151573E-2,1.4794697E0,5.254857E-1,1.3149891E-2,6.7323047E-1,2.9440984E-1,1.575766E-2,1.4386256E-2,2.0936832E-3,-1.0155767E0,5.1300065E-3,-1.0641203E-3,1.1678035E-2,1.5795931E-2,5.3448207E-3,1.2144382E-2,-1.2125719E-3,6.213951E-1,1.5425812E-2,9.444222E-2,-5.5438936E-1,-9.054079E-3,1.4952924E-3,3.7998247E-3,-5.400783E-3,1.0965288E-2,-6.6728164E-3,-8.7332865E-3,1.2306627E-3,3.644202E-3,-9.932077E-3,-5.411442E-3,1.3003664E-2,-8.858009E-3,-1.4114316E-2,-3.0445817E-3,-1.0948289E-2,-1.4362214E-3,1.014721E-2,1.6220617E-3,-1.0823596E-2,1.5997596E-2,5.998658E-3,-1.4737226E-3,8.883589E-3,-9.282712E-3,8.930066E-4,-9.308581E-3,-5.509259E-3,1.3997634E-2,-2.5941983E-3,-6.2012696E-3,2.6869755E-3,9.6103735E-3,9.79092E-4,1.1303516E-2,-1.3811982E-3,8.764671E-3,1.5351679E-2,1.0144361E-2,-3.069219E-3,1.43728275E-2,4.458219E-3,1.2716887E-2,-3.8426076E-3,1.413009E-2,3.5432263E-3,3.4667278E-4,-4.9555646E-3,1.54749025E-2,2.2487498E-3,7.406263E-3,-7.399738E-3,1.060165E-2,-1.6966576E-3,7.378457E-3,-2.010865E-3,-7.86118E-4,-1.3058667E-2,1.0400245E-2,-1.1723867E-3,1.19838035E-2,-6.1318777E-3,8.742743E-3,-6.051926E-3],"categories":[],"categories_nodes":[],"categories_segments":[],"categories_sizes":[],"default_left":[0,0,0,0,0,0,0,0,0,0,0,0,0,0,0,0,0,0,0,0,0,0,0,0,0,0,0,0,0,0,0,0,0,0,0,0,0,0,0,0,0,0,0,0,0,0,0,0,0,0,0,0,0,0,0,0,0,0,0,0,0,0,0,0,0,0,0,0,0,0,0,0,0,0,0,0,0,0,0,0,0,0,0,0,0,0,0,0,0,0,0,0,0,0,0,0,0,0,0,0,0,0,0,0,0,0,0,0,0,0,0,0,0,0,0,0,0,0,0,0,0,0,0,0,0,0,0,0,0,0,0,0,0,0,0,0,0,0,0,0,0,0,0,0,0,0,0,0,0,0,0,0,0,0,0,0,0,0,0,0,0,0,0,0,0,0,0,0,0,0,0,0,0,0,0,0,0,0,0],"id":12,"left_children":[1,3,5,7,9,11,13,15,17,19,21,23,25,27,29,31,33,35,37,39,41,43,45,47,49,51,53,55,57,59,61,63,65,67,69,71,73,75,77,79,81,-1,83,85,87,89,-1,-1,91,93,95,97,99,101,103,105,107,-1,109,-1,111,-1,113,115,117,119,121,123,125,127,129,131,133,-1,-1,135,137,139,-1,141,143,145,147,149,151,153,155,-1,157,159,161,-1,-1,-1,-1,163,165,-1,167,169,-1,-1,-1,171,-1,-1,-1,-1,-1,-1,-1,173,-1,175,177,-1,-1,-1,-1,-1,-1,-1,-1,-1,-1,-1,-1,-1,-1,-1,-1,-1,-1,-1,-1,-1,-1,-1,-1,-1,-1,-1,-1,-1,-1,-1,-1,-1,-1,-1,-1,-1,-1,-1,-1,-1,-1,-1,-1,-1,-1,-1,-1,-1,-1,-1,-1,-1,-1,-1,-1,-1,-1,-1,-1,-1,-1,-1,-1],"loss_changes":[2.763215E2,1.6855408E2,1.2342323E2,9.330078E1,1.0514444E2,2.4992584E1,4.1768795E1,8.307037E0,1.7896702E1,5.1794056E1,6.007985E1,1.0020264E1,1.0705273E1,6.701889E0,3.3864048E1,7.845665E0,4.3249054E0,6.1712637E0,8.639473E0,3.5030857E1,3.6882172E0,4.252176E1,1.5605621E1,7.56073E-1,1.2932999E1,6.8334885E0,1.4092282E1,1.935894E0,4.204701E0,6.8015327E0,1.7073092E1,5.292412E0,4.720724E0,6.1219254E0,2.4276886E0,5.727588E0,4.8440742E-1,2.354496E0,3.0117538E0,2.1407036E1,1.6755571E1,0E0,9.015045E-1,3.8901215E0,6.136202E1,1.0430343E1,0E0,0E0,1.0906619E0,1.4795585E0,6.3043633E0,5.436554E-1,6.2552614E0,1.5257616E0,5.1942296E0,1.9456131E0,4.2774963E-1,0E0,2.0057802E0,0E0,2.0624962E0,0E0,1.2902308E1,4.546417E0,2.3078666E0,6.1911364E0,2.1458707E0,6.133148E0,6.451456E0,2.937317E-3,3.3701553E0,3.844623E0,6.533346E0,0E0,0E0,1.05545044E-1,1.4279327E0,1.1423686E0,0E0,6.442627E0,8.67132E0,3.73281E0,1.251661E1,1.961515E0,1.0874634E0,4.0364227E0,2.2143936E0,0E0,1.01454315E1,1.6115618E0,8.93635E0,0E0,0E0,0E0,0E0,1.4435081E0,4.286627E0,0E0,2.1363087E0,5.467572E0,0E0,0E0,0E0,2.4017115E0,0E0,0E0,0E0,0E0,0E0,0E0,0E0,2.1288116E0,0E0,3.7515568E1,7.06085E0,0E0,0E0,0E0,0E0,0E0,0E0,0E0,0E0,0E0,0E0,0E0,0E0,0E0,0E0,0E0,0E0,0E0,0E0,0E0,0E0,0E0,0E0,0E0,0E0,0E0,0E0,0E0,0E0,0E0,0E0,0E0,0E0,0E0,0E0,0E0,0E0,0E0,0E0,0E0,0E0,0E0,0E0,0E0,0E0,0E0,0E0,0E0,0E0,0E0,0E0,0E0,0E0,0E0,0E0,0E0,0E0,0E0,0E0,0E0,0E0,0E0,0E0,0E0,0E0],"parents":[2147483647,0,0,1,1,2,2,3,3,4,4,5,5,6,6,7,7,8,8,9,9,10,10,11,11,12,12,13,13,14,14,15,15,16,16,17,17,18,18,19,19,20,20,21,21,22,22,23,23,24,24,25,25,26,26,27,27,28,28,29,29,30,30,31,31,32,32,33,33,34,34,35,35,36,36,37,37,38,38,39,39,40,40,42,42,43,43,44,44,45,45,48,48,49,49,50,50,51,51,52,52,53,53,54,54,55,55,56,56,58,58,60,60,62,62,63,63,64,64,65,65,66,66,67,67,68,68,69,69,70,70,71,71,72,72,75,75,76,76,77,77,79,79,80,80,81,81,82,82,83,83,84,84,85,85,86,86,88,88,89,89,90,90,95,95,96,96,98,98,99,99,103,103,111,111,113,113,114,114],"right_children":[2,4,6,8,10,12,14,16,18,20,22,24,26,28,30,32,34,36,38,40,42,44,46,48,50,52,54,56,58,60,62,64,66,68,70,72,74,76,78,80,82,-1,84,86,88,90,-1,-1,92,94,96,98,100,102,104,106,108,-1,110,-1,112,-1,114,116,118,120,122,124,126,128,130,132,134,-1,-1,136,138,140,-1,142,144,146,148,150,152,154,156,-1,158,160,162,-1,-1,-1,-1,164,166,-1,168,170,-1,-1,-1,172,-1,-1,-1,-1,-1,-1,-1,174,-1,176,178,-1,-1,-1,-1,-1,-1,-1,-1,-1,-1,-1,-1,-1,-1,-1,-1,-1,-1,-1,-1,-1,-1,-1,-1,-1,-1,-1,-1,-1,-1,-1,-1,-1,-1,-1,-1,-1,-1,-1,-1,-1,-1,-1,-1,-1,-1,-1,-1,-1,-1,-1,-1,-1,-1,-1,-1,-1,-1,-1,-1,-1,-1,-1,-1],"split_conditions":[9E0,1E0,1E0,-5E-1,-2.4492937E-16,1E0,1E2,1E0,6.620819E-1,4E0,1E0,1E0,8.660254E-1,1E0,-5E-1,1.7130353E0,5E-1,1E0,8.660254E-1,1E0,-8.9780456E-1,5E-1,1E0,1E0,1E0,5E-1,9.9E1,4.8E1,-2.4507658E-1,1.07E2,-8.9780456E-1,9.795299E-1,2.8840263E0,1E0,-1.7380431E-1,-5E-1,1E0,1E0,-2.4492937E-16,1.0315724E-1,-2.8071272E-1,-1.3922252E-3,-8.743466E-1,8.660254E-1,-2.5065252E-1,5E-1,1.5222862E-2,1.623352E-2,2E0,2E0,5E-1,6E0,1E0,-5.064917E-2,-2.4492937E-16,1E0,9.8846835E-1,-1.0558537E-2,-5E-1,-5.262309E-3,-4.4039416E-1,1.468158E-2,1E0,1E0,2E0,5.28964E-1,8.2076347E-1,1E0,1E0,1E0,-8.4864426E-1,-2.3819944E-1,1E0,-1.3291389E-2,-3.2118836E-3,1E0,2E0,-4.4039416E-1,7.2573153E-3,-2.9936314E-1,-8.660254E-1,-1.8369701E-16,1E0,-2.4492937E-16,6.745858E-1,1E0,3.6148796E0,1.828436E-2,1.2246469E-16,-6.68959E-2,7.907757E-1,4.16653E-5,1.1078712E-2,1.2151233E-4,-1.2151573E-2,4.038762E0,1E0,1.3149891E-2,1.89E2,1.86E2,1.575766E-2,1.4386256E-2,2.0936832E-3,-6.513725E-1,5.1300065E-3,-1.0641203E-3,1.1678035E-2,1.5795931E-2,5.3448207E-3,1.2144382E-2,-1.2125719E-3,1E0,1.5425812E-2,1E0,-8.660254E-1,-9.054079E-3,1.4952924E-3,3.7998247E-3,-5.400783E-3,1.0965288E-2,-6.6728164E-3,-8.7332865E-3,1.2306627E-3,3.644202E-3,-9.932077E-3,-5.411442E-3,1.3003664E-2,-8.858009E-3,-1.4114316E-2,-3.0445817E-3,-1.0948289E-2,-1.4362214E-3,1.014721E-2,1.6220617E-3,-1.0823596E-2,1.5997596E-2,5.998658E-3,-1.4737226E-3,8.883589E-3,-9.282712E-3,8.930066E-4,-9.308581E-3,-5.509259E-3,1.3997634E-2,-2.5941983E-3,-6.2012696E-3,2.6869755E-3,9.6103735E-3,9.79092E-4,1.1303516E-2,-1.3811982E-3,8.764671E-3,1.5351679E-2,1.0144361E-2,-3.069219E-3,1.43728275E-2,4.458219E-3,1.2716887E-2,-3.8426076E-3,1.413009E-2,3.5432263E-3,3.4667278E-4,-4.9555646E-3,1.54749025E-2,2.2487498E-3,7.406263E-3,-7.399738E-3,1.060165E-2,-1.6966576E-3,7.378457E-3,-2.010865E-3,-7.86118E-4,-1.3058667E-2,1.0400245E-2,-1.1723867E-3,1.19838035E-2,-6.1318777E-3,8.742743E-3,-6.051926E-3],"split_indices":[35,19,1,31,30,22,35,17,32,27,1,23,31,23,30,32,30,13,31,18,28,31,30,7,19,30,35,35,32,35,28,29,32,9,32,30,1,18,28,32,32,0,29,30,29,30,0,0,26,34,30,34,30,29,28,13,28,0,31,0,29,0,22,9,26,29,29,27,20,1,28,32,1,0,0,8,26,29,0,28,30,31,27,28,32,2,32,0,30,32,28,0,0,0,0,32,5,0,35,35,0,0,0,28,0,0,0,0,0,0,0,22,0,23,31,0,0,0,0,0,0,0,0,0,0,0,0,0,0,0,0,0,0,0,0,0,0,0,0,0,0,0,0,0,0,0,0,0,0,0,0,0,0,0,0,0,0,0,0,0,0,0,0,0,0,0,0,0,0,0,0,0,0,0,0,0,0,0,0],"split_type":[0,0,0,0,0,0,0,0,0,0,0,0,0,0,0,0,0,0,0,0,0,0,0,0,0,0,0,0,0,0,0,0,0,0,0,0,0,0,0,0,0,0,0,0,0,0,0,0,0,0,0,0,0,0,0,0,0,0,0,0,0,0,0,0,0,0,0,0,0,0,0,0,0,0,0,0,0,0,0,0,0,0,0,0,0,0,0,0,0,0,0,0,0,0,0,0,0,0,0,0,0,0,0,0,0,0,0,0,0,0,0,0,0,0,0,0,0,0,0,0,0,0,0,0,0,0,0,0,0,0,0,0,0,0,0,0,0,0,0,0,0,0,0,0,0,0,0,0,0,0,0,0,0,0,0,0,0,0,0,0,0,0,0,0,0,0,0,0,0,0,0,0,0,0,0,0,0,0,0],"sum_hessian":[1.6602783E3,1.2508616E3,4.0941684E2,4.247246E2,8.2613696E2,2.219384E2,1.8747844E2,3.666314E2,5.8093178E1,4.706387E2,3.5549823E2,1.4728702E2,7.465138E1,2.8694492E1,1.5878395E2,1.4394968E2,2.2268175E2,3.3128647E1,2.4964529E1,4.4340125E2,2.7237463E1,1.8725566E2,1.6824257E2,1.1131807E2,3.5968956E1,5.8451996E1,1.6199385E1,2.4203897E1,4.4905944E0,1.921591E1,1.3956804E2,1.288247E2,1.5124977E1,9.442268E1,1.2825906E2,2.915087E1,3.9777782E0,1.9484404E1,5.4801245E0,3.1886557E2,1.2453567E2,2.2489018E0,2.4988562E1,1.1319912E2,7.405654E1,1.6274338E2,5.499199E0,1.0856844E2,2.749622E0,3.243871E0,3.2725082E1,3.1493725E1,2.695827E1,5.745292E0,1.0454093E1,3.4932764E0,2.071062E1,1.2466127E0,3.2439818E0,1.74586E0,1.747005E1,4.4917393E0,1.350763E2,1.1987834E2,8.94636E0,6.952812E0,8.172165E0,8.748833E1,6.9343567E0,5.7769688E1,7.048937E1,1.1469886E1,1.7680984E1,2.4853551E0,1.4924229E0,1.5239287E1,4.2451167E0,3.484922E0,1.9952023E0,1.9223932E2,1.2662625E2,3.5305595E1,8.9230064E1,3.4986637E0,2.1489899E1,5.022195E1,6.2977165E1,1.7234148E1,5.6822395E1,7.2471857E0,1.5549619E2,1.4997077E0,1.2499143E0,1.4991359E0,1.7447351E0,1.9993006E1,1.2732079E1,2.6495073E1,4.9986515E0,2.3208906E1,3.7493641E0,3.9965792E0,1.7487133E0,8.20752E0,2.2465732E0,2.2463794E0,1.246897E0,1.8964405E1,1.7462152E0,1.4987592E0,1.7452227E0,5.490267E0,1.1979784E1,4.6083572E1,8.899273E1,1.1591725E2,3.9610887E0,4.723906E0,4.2224536E0,4.7169533E0,2.235859E0,5.192879E0,2.9792852E0,2.9821396E0,8.450619E1,5.18671E0,1.7476467E0,6.6384816E0,5.1131203E1,6.909111E0,6.358026E1,3.9900537E0,7.4798317E0,1.2460854E1,5.220131E0,1.34930315E1,1.7462564E0,1.74807E0,2.4970465E0,1.9932928E0,1.4916292E0,9.9074486E1,9.316484E1,2.2493E0,1.2437695E2,3.0325102E1,4.980495E0,2.1462505E1,6.776756E1,1.2496109E0,2.2490528E0,1.1993519E1,9.496379E0,4.822358E1,1.9983695E0,5.9477543E1,3.4996233E0,2.9990408E0,5.3823353E1,3.997992E0,3.2491937E0,1.1221022E2,4.3285965E1,1.8743338E1,1.2496681E0,1.12365E1,1.4955794E0,3.249289E0,1.7493627E0,1.1989767E1,1.1219138E1,2.2419655E0,5.9655538E0,3.243779E0,2.2464879E0,1.7730146E1,2.8353426E1,2.4993124E0,8.6493416E1],"tree_param":{"num_deleted":"0","num_feature":"36","num_nodes":"179","size_leaf_vector":"1"}},{"base_weights":[6.5938123E-3,-1.5908453E-1,1.5652454E0,5.595197E-2,-8.8436496E-1,1.5746831E0,2.0222366E-3,2.9153022E-1,-2.726498E-1,-9.1826624E-1,8.837897E-1,1.1267731E0,1.6059674E-2,2.0807678E-2,7.064767E-1,1.1793684E0,-3.095231E-1,-7.1032107E-1,-1.0540866E0,5.6292467E-2,1.3302103E-2,1.3988893E0,4.1963178E-1,-1.5041459E-1,1.0465546E0,1.1094114E0,1.4274853E-1,1.2655869E0,2.3366516E-3,-3.389787E-1,1.2989392E0,-7.823246E-1,-9.074089E-2,-1.0627208E0,6.5036275E-4,6.8987524E-3,-6.0336697E-3,3.7411286E-3,1.544404E-2,-2.2033092E-3,8.025622E-1,-3.6843258E-1,5.13479E-1,1.3317387E0,7.72873E-2,1.1652194E0,6.654001E-2,-1.5782876E-1,8.295853E-1,2.4827435E-3,1.3704788E-2,-3.5823306E-1,1.4234361E-2,1.4466696E-2,2.2908787E-3,-3.1545863E-1,-8.639917E-1,3.7587973E-1,-6.392492E-1,-1.0027246E0,-1.2877392E-2,1.0619045E-2,1.862469E-3,-5.6558196E-3,1.135158E-3,1.2941629E-2,-9.405915E-4,6.0950997E-3,1.3866515E-2,9.986939E-3,-8.574871E-3,9.548327E-3,1.3392795E-2,-1.0505852E-2,6.5636435E-3,1.1195458E-2,-2.6820018E-3,9.521594E-3,-5.2833413E-3,1.3033296E-3,-4.1317963E-3,-4.293032E-3,7.693739E-3,-1.1824571E-2,-7.2980123E-3,-4.474927E-3,1.1208889E-2,-1.3320054E-3,-1.2581345E-2,-4.8203E-3,-1.0260928E-2],"categories":[],"categories_nodes":[],"categories_segments":[],"categories_sizes":[],"default_left":[0,0,0,0,0,0,0,0,0,0,0,0,0,0,0,0,0,0,0,0,0,0,0,0,0,0,0,0,0,0,0,0,0,0,0,0,0,0,0,0,0,0,0,0,0,0,0,0,0,0,0,0,0,0,0,0,0,0,0,0,0,0,0,0,0,0,0,0,0,0,0,0,0,0,0,0,0,0,0,0,0,0,0,0,0,0,0,0,0,0,0],"id":13,"left_children":[1,3,5,7,9,11,-1,13,15,17,19,21,-1,23,25,27,29,31,33,35,-1,37,39,41,43,45,47,49,-1,51,53,55,57,59,-1,-1,-1,-1,-1,-1,61,63,65,67,69,71,73,75,77,-1,-1,79,-1,-1,-1,81,83,85,87,89,-1,-1,-1,-1,-1,-1,-1,-1,-1,-1,-1,-1,-1,-1,-1,-1,-1,-1,-1,-1,-1,-1,-1,-1,-1,-1,-1,-1,-1,-1,-1],"loss_changes":[4.3041293E2,2.350278E2,1.7416382E0,9.0111664E1,2.14682E1,4.170227E-1,0E0,7.613552E1,2.6393963E1,8.814758E0,2.508226E0,2.0540218E0,0E0,7.238816E1,6.0629852E1,7.029228E-1,2.2940422E1,6.03421E0,2.0283508E0,1.8768008E0,0E0,8.362675E-1,1.4615483E0,5.132742E1,1.6193588E1,8.997055E0,2.339737E1,8.333187E-1,0E0,1.63625E1,1.0511131E0,4.396988E0,4.176545E0,1.4259033E0,0E0,0E0,0E0,0E0,0E0,0E0,3.6089754E-1,2.539064E1,4.1745686E1,9.5897675E-1,1.3314714E1,4.138687E0,6.6069264E0,1.1470924E1,6.2398434E0,0E0,0E0,1.248061E1,0E0,0E0,0E0,2.7767541E0,3.56707E0,5.9853725E0,2.1624053E0,1.4938202E0,0E0,0E0,0E0,0E0,0E0,0E0,0E0,0E0,0E0,0E0,0E0,0E0,0E0,0E0,0E0,0E0,0E0,0E0,0E0,0E0,0E0,0E0,0E0,0E0,0E0,0E0,0E0,0E0,0E0,0E0,0E0],"parents":[2147483647,0,0,1,1,2,2,3,3,4,4,5,5,7,7,8,8,9,9,10,10,11,11,13,13,14,14,15,15,16,16,17,17,18,18,19,19,21,21,22,22,23,23,24,24,25,25,26,26,27,27,29,29,30,30,31,31,32,32,33,33,40,40,41,41,42,42,43,43,44,44,45,45,46,46,47,47,48,48,51,51,55,55,56,56,57,57,58,58,59,59],"right_children":[2,4,6,8,10,12,-1,14,16,18,20,22,-1,24,26,28,30,32,34,36,-1,38,40,42,44,46,48,50,-1,52,54,56,58,60,-1,-1,-1,-1,-1,-1,62,64,66,68,70,72,74,76,78,-1,-1,80,-1,-1,-1,82,84,86,88,90,-1,-1,-1,-1,-1,-1,-1,-1,-1,-1,-1,-1,-1,-1,-1,-1,-1,-1,-1,-1,-1,-1,-1,-1,-1,-1,-1,-1,-1,-1,-1],"split_conditions":[1E0,1E0,4.95E2,1E0,6.123234E-17,-8.660254E-1,2.0222366E-3,-2.4492937E-16,-8.660254E-1,1E0,1.1941232E-1,6.513725E-1,1.6059674E-2,1E0,5E-1,3.69E2,1E0,1.6148796E0,-5E-1,-5E-1,1.3302103E-2,8.3E1,-1.4379494E-2,-1.8369701E-16,8.660254E-1,3.23E2,4.732729E-1,-3.4323227E-1,2.3366516E-3,4.37E2,3E0,1E0,-2.4492937E-16,8.9780456E-1,6.5036275E-4,6.8987524E-3,-6.0336697E-3,3.7411286E-3,1.544404E-2,-2.2033092E-3,9.2E1,3.9949983E-1,-5E-1,-2.863395E-1,9.8E1,8.660254E-1,3.51E2,-5.712682E-1,1E0,2.4827435E-3,1.3704788E-2,-5E-1,1.4234361E-2,1.4466696E-2,2.2908787E-3,1E0,1E0,-4.8530197E-1,1E0,1E0,-1.2877392E-2,1.0619045E-2,1.862469E-3,-5.6558196E-3,1.135158E-3,1.2941629E-2,-9.405915E-4,6.0950997E-3,1.3866515E-2,9.986939E-3,-8.574871E-3,9.548327E-3,1.3392795E-2,-1.0505852E-2,6.5636435E-3,1.1195458E-2,-2.6820018E-3,9.521594E-3,-5.2833413E-3,1.3033296E-3,-4.1317963E-3,-4.293032E-3,7.693739E-3,-1.1824571E-2,-7.2980123E-3,-4.474927E-3,1.1208889E-2,-1.3320054E-3,-1.2581345E-2,-4.8203E-3,-1.0260928E-2],"split_indices":[24,21,35,1,31,31,0,30,31,17,32,28,0,3,31,35,30,32,31,30,0,35,32,31,31,35,32,32,0,35,34,27,28,28,0,0,0,0,0,0,35,32,30,32,35,30,35,28,14,0,0,30,0,0,0,0,1,28,16,27,0,0,0,0,0,0,